{"learner":{"attributes":{"scikit_learn":"{\"_estimator_type\": \"classifier\"}"},"feature_names":[],"feature_types":[],"gradient_booster":{"model":{"gbtree_model_param":{"num_parallel_tree":"1","num_trees":"2200"},"iteration_indptr":[0,22,44,66,88,110,132,154,176,198,220,242,264,286,308,330,352,374,396,418,440,462,484,506,528,550,572,594,616,638,660,682,704,726,748,770,792,814,836,858,880,902,924,946,968,990,1012,1034,1056,1078,1100,1122,1144,1166,1188,1210,1232,1254,1276,1298,1320,1342,1364,1386,1408,1430,1452,1474,1496,1518,1540,1562,1584,1606,1628,1650,1672,1694,1716,1738,1760,1782,1804,1826,1848,1870,1892,1914,1936,1958,1980,2002,2024,2046,2068,2090,2112,2134,2156,2178,2200],"tree_info":[0,1,2,3,4,5,6,7,8,9,10,11,12,13,14,15,16,17,18,19,20,21,0,1,2,3,4,5,6,7,8,9,10,11,12,13,14,15,16,17,18,19,20,21,0,1,2,3,4,5,6,7,8,9,10,11,12,13,14,15,16,17,18,19,20,21,0,1,2,3,4,5,6,7,8,9,10,11,12,13,14,15,16,17,18,19,20,21,0,1,2,3,4,5,6,7,8,9,10,11,12,13,14,15,16,17,18,19,20,21,0,1,2,3,4,5,6,7,8,9,10,11,12,13,14,15,16,17,18,19,20,21,0,1,2,3,4,5,6,7,8,9,10,11,12,13,14,15,16,17,18,19,20,21,0,1,2,3,4,5,6,7,8,9,10,11,12,13,14,15,16,17,18,19,20,21,0,1,2,3,4,5,6,7,8,9,10,11,12,13,14,15,16,17,18,19,20,21,0,1,2,3,4,5,6,7,8,9,10,11,12,13,14,15,16,17,18,19,20,21,0,1,2,3,4,5,6,7,8,9,10,11,12,13,14,15,16,17,18,19,20,21,0,1,2,3,4,5,6,7,8,9,10,11,12,13,14,15,16,17,18,19,20,21,0,1,2,3,4,5,6,7,8,9,10,11,12,13,14,15,16,17,18,19,20,21,0,1,2,3,4,5,6,7,8,9,10,11,12,13,14,15,16,17,18,19,20,21,0,1,2,3,4,5,6,7,8,9,10,11,12,13,14,15,16,17,18,19,20,21,0,1,2,3,4,5,6,7,8,9,10,11,12,13,14,15,16,17,18,19,20,21,0,1,2,3,4,5,6,7,8,9,10,11,12,13,14,15,16,17,18,19,20,21,0,1,2,3,4,5,6,7,8,9,10,11,12,13,14,15,16,17,18,19,20,21,0,1,2,3,4,5,6,7,8,9,10,11,12,13,14,15,16,17,18,19,20,21,0,1,2,3,4,5,6,7,8,9,10,11,12,13,14,15,16,17,18,19,20,21,0,1,2,3,4,5,6,7,8,9,10,11,12,13,14,15,16,17,18,19,20,21,0,1,2,3,4,5,6,7,8,9,10,11,12,13,14,15,16,17,18,19,20,21,0,1,2,3,4,5,6,7,8,9,10,11,12,13,14,15,16,17,18,19,20,21,0,1,2,3,4,5,6,7,8,9,10,11,12,13,14,15,16,17,18,19,20,21,0,1,2,3,4,5,6,7,8,9,10,11,12,13,14,15,16,17,18,19,20,21,0,1,2,3,4,5,6,7,8,9,10,11,12,13,14,15,16,17,18,19,20,21,0,1,2,3,4,5,6,7,8,9,10,11,12,13,14,15,16,17,18,19,20,21,0,1,2,3,4,5,6,7,8,9,10,11,12,13,14,15,16,17,18,19,20,21,0,1,2,3,4,5,6,7,8,9,10,11,12,13,14,15,16,17,18,19,20,21,0,1,2,3,4,5,6,7,8,9,10,11,12,13,14,15,16,17,18,19,20,21,0,1,2,3,4,5,6,7,8,9,10,11,12,13,14,15,16,17,18,19,20,21,0,1,2,3,4,5,6,7,8,9,10,11,12,13,14,15,16,17,18,19,20,21,0,1,2,3,4,5,6,7,8,9,10,11,12,13,14,15,16,17,18,19,20,21,0,1,2,3,4,5,6,7,8,9,10,11,12,13,14,15,16,17,18,19,20,21,0,1,2,3,4,5,6,7,8,9,10,11,12,13,14,15,16,17,18,19,20,21,0,1,2,3,4,5,6,7,8,9,10,11,12,13,14,15,16,17,18,19,20,21,0,1,2,3,4,5,6,7,8,9,10,11,12,13,14,15,16,17,18,19,20,21,0,1,2,3,4,5,6,7,8,9,10,11,12,13,14,15,16,17,18,19,20,21,0,1,2,3,4,5,6,7,8,9,10,11,12,13,14,15,16,17,18,19,20,21,0,1,2,3,4,5,6,7,8,9,10,11,12,13,14,15,16,17,18,19,20,21,0,1,2,3,4,5,6,7,8,9,10,11,12,13,14,15,16,17,18,19,20,21,0,1,2,3,4,5,6,7,8,9,10,11,12,13,14,15,16,17,18,19,20,21,0,1,2,3,4,5,6,7,8,9,10,11,12,13,14,15,16,17,18,19,20,21,0,1,2,3,4,5,6,7,8,9,10,11,12,13,14,15,16,17,18,19,20,21,0,1,2,3,4,5,6,7,8,9,10,11,12,13,14,15,16,17,18,19,20,21,0,1,2,3,4,5,6,7,8,9,10,11,12,13,14,15,16,17,18,19,20,21,0,1,2,3,4,5,6,7,8,9,10,11,12,13,14,15,16,17,18,19,20,21,0,1,2,3,4,5,6,7,8,9,10,11,12,13,14,15,16,17,18,19,20,21,0,1,2,3,4,5,6,7,8,9,10,11,12,13,14,15,16,17,18,19,20,21,0,1,2,3,4,5,6,7,8,9,10,11,12,13,14,15,16,17,18,19,20,21,0,1,2,3,4,5,6,7,8,9,10,11,12,13,14,15,16,17,18,19,20,21,0,1,2,3,4,5,6,7,8,9,10,11,12,13,14,15,16,17,18,19,20,21,0,1,2,3,4,5,6,7,8,9,10,11,12,13,14,15,16,17,18,19,20,21,0,1,2,3,4,5,6,7,8,9,10,11,12,13,14,15,16,17,18,19,20,21,0,1,2,3,4,5,6,7,8,9,10,11,12,13,14,15,16,17,18,19,20,21,0,1,2,3,4,5,6,7,8,9,10,11,12,13,14,15,16,17,18,19,20,21,0,1,2,3,4,5,6,7,8,9,10,11,12,13,14,15,16,17,18,19,20,21,0,1,2,3,4,5,6,7,8,9,10,11,12,13,14,15,16,17,18,19,20,21,0,1,2,3,4,5,6,7,8,9,10,11,12,13,14,15,16,17,18,19,20,21,0,1,2,3,4,5,6,7,8,9,10,11,12,13,14,15,16,17,18,19,20,21,0,1,2,3,4,5,6,7,8,9,10,11,12,13,14,15,16,17,18,19,20,21,0,1,2,3,4,5,6,7,8,9,10,11,12,13,14,15,16,17,18,19,20,21,0,1,2,3,4,5,6,7,8,9,10,11,12,13,14,15,16,17,18,19,20,21,0,1,2,3,4,5,6,7,8,9,10,11,12,13,14,15,16,17,18,19,20,21,0,1,2,3,4,5,6,7,8,9,10,11,12,13,14,15,16,17,18,19,20,21,0,1,2,3,4,5,6,7,8,9,10,11,12,13,14,15,16,17,18,19,20,21,0,1,2,3,4,5,6,7,8,9,10,11,12,13,14,15,16,17,18,19,20,21,0,1,2,3,4,5,6,7,8,9,10,11,12,13,14,15,16,17,18,19,20,21,0,1,2,3,4,5,6,7,8,9,10,11,12,13,14,15,16,17,18,19,20,21,0,1,2,3,4,5,6,7,8,9,10,11,12,13,14,15,16,17,18,19,20,21,0,1,2,3,4,5,6,7,8,9,10,11,12,13,14,15,16,17,18,19,20,21,0,1,2,3,4,5,6,7,8,9,10,11,12,13,14,15,16,17,18,19,20,21,0,1,2,3,4,5,6,7,8,9,10,11,12,13,14,15,16,17,18,19,20,21,0,1,2,3,4,5,6,7,8,9,10,11,12,13,14,15,16,17,18,19,20,21,0,1,2,3,4,5,6,7,8,9,10,11,12,13,14,15,16,17,18,19,20,21,0,1,2,3,4,5,6,7,8,9,10,11,12,13,14,15,16,17,18,19,20,21,0,1,2,3,4,5,6,7,8,9,10,11,12,13,14,15,16,17,18,19,20,21,0,1,2,3,4,5,6,7,8,9,10,11,12,13,14,15,16,17,18,19,20,21,0,1,2,3,4,5,6,7,8,9,10,11,12,13,14,15,16,17,18,19,20,21,0,1,2,3,4,5,6,7,8,9,10,11,12,13,14,15,16,17,18,19,20,21,0,1,2,3,4,5,6,7,8,9,10,11,12,13,14,15,16,17,18,19,20,21,0,1,2,3,4,5,6,7,8,9,10,11,12,13,14,15,16,17,18,19,20,21,0,1,2,3,4,5,6,7,8,9,10,11,12,13,14,15,16,17,18,19,20,21,0,1,2,3,4,5,6,7,8,9,10,11,12,13,14,15,16,17,18,19,20,21,0,1,2,3,4,5,6,7,8,9,10,11,12,13,14,15,16,17,18,19,20,21,0,1,2,3,4,5,6,7,8,9,10,11,12,13,14,15,16,17,18,19,20,21,0,1,2,3,4,5,6,7,8,9,10,11,12,13,14,15,16,17,18,19,20,21,0,1,2,3,4,5,6,7,8,9,10,11,12,13,14,15,16,17,18,19,20,21,0,1,2,3,4,5,6,7,8,9,10,11,12,13,14,15,16,17,18,19,20,21,0,1,2,3,4,5,6,7,8,9,10,11,12,13,14,15,16,17,18,19,20,21,0,1,2,3,4,5,6,7,8,9,10,11,12,13,14,15,16,17,18,19,20,21,0,1,2,3,4,5,6,7,8,9,10,11,12,13,14,15,16,17,18,19,20,21,0,1,2,3,4,5,6,7,8,9,10,11,12,13,14,15,16,17,18,19,20,21,0,1,2,3,4,5,6,7,8,9,10,11,12,13,14,15,16,17,18,19,20,21,0,1,2,3,4,5,6,7,8,9,10,11,12,13,14,15,16,17,18,19,20,21,0,1,2,3,4,5,6,7,8,9,10,11,12,13,14,15,16,17,18,19,20,21,0,1,2,3,4,5,6,7,8,9,10,11,12,13,14,15,16,17,18,19,20,21,0,1,2,3,4,5,6,7,8,9,10,11,12,13,14,15,16,17,18,19,20,21,0,1,2,3,4,5,6,7,8,9,10,11,12,13,14,15,16,17,18,19,20,21,0,1,2,3,4,5,6,7,8,9,10,11,12,13,14,15,16,17,18,19,20,21],"trees":[{"base_weights":[1.5400661E-2,-2.831596E-1,4.8576336E0,8.6514777E-1,-4.692569E-1,7.896441E0,3.4913242E-1,-1.10205896E-1,3.6571982E0,-5.0842935E-1,7.587812E-1,-8.619403E-2,8.772743E0,-3.4736845E-1,9.0349513E-1,-4.1902187E-1,2.029486E0,-1.2950581E-1,6.071283E0,-1.7531674E-1,-5.184632E-1,-1.3778006E-1,1.2613105E0,4.5559704E-1,2.841051E0,6.6801615E-2,-1.3645267E-1,-4.7704795E-1,2.1376519E-1,-1.15536116E-1,1.6083496E0,-9.134949E-2,7.432432E0,3.6072877E-1,-1.3981777E-1,-1.5658884E-1,3.4256052E-2,6.6801615E-2,-1.521614E-1,2.5498893E0,3.3961165E-1],"categories":[],"categories_nodes":[],"categories_segments":[],"categories_sizes":[],"default_left":[0,0,0,0,0,0,0,0,0,0,0,0,0,0,0,0,0,0,0,0,0,0,0,0,0,0,0,0,0,0,0,0,0,0,0,0,0,0,0,0,0],"id":0,"left_children":[1,3,5,7,9,11,13,15,17,19,21,-1,23,25,-1,27,29,-1,31,33,35,-1,-1,-1,-1,-1,-1,37,-1,-1,-1,-1,39,-1,-1,-1,-1,-1,-1,-1,-1],"loss_changes":[5.3900806E2,7.546304E1,2.9389786E2,1.3475314E2,1.4956696E1,9.494916E1,1.9153822E1,2.5651157E1,1.2898488E2,8.9221954E-1,4.2911304E1,0E0,4.467688E1,6.303824E-1,0E0,2.547965E0,4.1523586E1,0E0,7.269443E1,4.610788E0,6.9062805E-1,0E0,0E0,0E0,0E0,0E0,0E0,8.0056095E-1,0E0,0E0,0E0,0E0,3.5610718E1,0E0,0E0,0E0,0E0,0E0,0E0,0E0,0E0],"parents":[2147483647,0,0,1,1,2,2,3,3,4,4,5,5,6,6,7,7,8,8,9,9,10,10,12,12,13,13,15,15,16,16,18,18,19,19,20,20,27,27,32,32],"right_children":[2,4,6,8,10,12,14,16,18,20,22,-1,24,26,-1,28,30,-1,32,34,36,-1,-1,-1,-1,-1,-1,38,-1,-1,-1,-1,40,-1,-1,-1,-1,-1,-1,-1,-1],"split_conditions":[1.5501381E-1,-1.3702762E-1,-1.239043E-1,6.290084E-1,5.955642E-1,-1.7518824E-1,5.8665943E-1,8.6643595E-1,1.9153288E-1,-2.0328857E-1,5.2190095E-1,-8.619403E-2,-1.404517E-1,-1.0375306E-1,9.0349513E-1,-5.031972E-2,-9.8884985E-2,-1.2950581E-1,-1.576901E-1,-1.6548209E-1,1.6244793E0,-1.3778006E-1,1.2613105E0,4.5559704E-1,2.841051E0,6.6801615E-2,-1.3645267E-1,-1.0578258E-1,2.1376519E-1,-1.15536116E-1,1.6083496E0,-9.134949E-2,3.4723717E-1,3.6072877E-1,-1.3981777E-1,-1.5658884E-1,3.4256052E-2,6.6801615E-2,-1.521614E-1,2.5498893E0,3.3961165E-1],"split_indices":[972,781,547,1211,1009,1258,191,413,643,1190,296,0,48,1,0,206,1227,0,139,75,461,0,0,0,0,0,0,1,0,0,0,0,823,0,0,0,0,0,0,0,0],"split_type":[0,0,0,0,0,0,0,0,0,0,0,0,0,0,0,0,0,0,0,0,0,0,0,0,0,0,0,0,0,0,0,0,0,0,0,0,0,0,0,0,0],"sum_hessian":[3.708843E2,3.502314E2,2.0652893E1,4.833471E1,3.018967E2,1.188843E1,8.764462E0,3.653306E1,1.1801653E1,2.9313223E2,8.764462E0,1.214876E0,1.0673553E1,7.6363635E0,1.1280992E0,3.2628098E1,3.9049587E0,4.6859503E0,7.1157026E0,9.11157E0,2.8402066E2,7.1157026E0,1.6487603E0,1.214876E0,9.458677E0,1.0413224E0,6.5950413E0,3.1586777E1,1.0413224E0,2.7768595E0,1.1280992E0,1.3884298E0,5.727273E0,1.0413224E0,8.070248E0,2.8263223E2,1.3884298E0,1.0413224E0,3.0545454E1,4.5991735E0,1.1280992E0],"tree_param":{"num_deleted":"0","num_feature":"1280","num_nodes":"41","size_leaf_vector":"1"}},{"base_weights":[1.8089669E-2,-3.255416E-1,3.1037495E0,-4.3699497E-1,1.504772E0,6.049612E0,4.6361825E-1,-4.556213E-1,6.622838E-1,2.9506415E-2,5.683482E0,7.8057823E0,6.785986E-1,3.4003925E0,-2.6640022E-1,8.391484E-1,-4.833665E-1,-4.1576326E-1,8.235189E-1,2.2673962E0,4.147217E-2,2.5548387E-1,8.669757E0,-1.2130066E-1,8.0161947E-1,1.777742E0,-9.781592E-2,5.076923E-1,-1.476381E-1,9.580645E-1,-1.2817976E-1,-4.9606597E-1,7.951807E-1,6.6801615E-2,-1.4511232E-1,2.7836823E0,4.8058254E-1,-5.0888294E-1,3.5199997E-1,5.076923E-1,-9.134949E-2,-1.5463601E-1,2.1376519E-1,-1.1903808E-1,5.076923E-1],"categories":[],"categories_nodes":[],"categories_segments":[],"categories_sizes":[],"default_left":[0,0,0,0,0,0,0,0,0,0,0,0,0,0,0,0,0,0,0,0,0,0,0,0,0,0,0,0,0,0,0,0,0,0,0,0,0,0,0,0,0,0,0,0,0],"id":1,"left_children":[1,3,5,7,9,11,13,15,-1,17,19,21,23,25,27,29,31,33,-1,-1,-1,-1,35,-1,-1,-1,-1,-1,-1,-1,-1,37,39,-1,-1,-1,-1,41,43,-1,-1,-1,-1,-1,-1],"loss_changes":[3.9533017E2,6.910281E1,2.8775745E2,1.6623104E1,1.19942215E2,1.604718E2,4.546708E1,1.174501E1,0E0,1.9768278E1,5.1744186E1,7.161755E1,1.27932E1,4.1558666E1,8.603041E0,2.2199049E1,5.42247E0,7.194834E-1,0E0,0E0,0E0,0E0,3.5023804E1,0E0,0E0,0E0,0E0,0E0,0E0,0E0,0E0,3.5186539E0,3.8989325E0,0E0,0E0,0E0,0E0,2.79953E0,5.8554525E0,0E0,0E0,0E0,0E0,0E0,0E0],"parents":[2147483647,0,0,1,1,2,2,3,3,4,4,5,5,6,6,7,7,9,9,10,10,11,11,12,12,13,13,14,14,15,15,16,16,17,17,22,22,31,31,32,32,37,37,38,38],"right_children":[2,4,6,8,10,12,14,16,-1,18,20,22,24,26,28,30,32,34,-1,-1,-1,-1,36,-1,-1,-1,-1,-1,-1,-1,-1,38,40,-1,-1,-1,-1,42,44,-1,-1,-1,-1,-1,-1],"split_conditions":[9.843311E-2,8.077738E-1,-1.7230256E-1,5.1143855E-1,6.7710626E-1,5.4034424E-1,-1.5942387E-1,-1.1641661E-1,6.622838E-1,-5.5833828E-2,-1.517862E-1,-1.8848443E-1,-7.444546E-2,9.327321E-3,-7.3780626E-2,3.8993335E-1,4.9280915E-1,-2.199545E-1,8.235189E-1,2.2673962E0,4.147217E-2,2.5548387E-1,-8.3224826E-2,-1.2130066E-1,8.0161947E-1,1.777742E0,-9.781592E-2,5.076923E-1,-1.476381E-1,9.580645E-1,-1.2817976E-1,1.3327168E0,-1.7894539E-1,6.6801615E-2,-1.4511232E-1,2.7836823E0,4.8058254E-1,1.1204686E0,-9.638959E-2,5.076923E-1,-9.134949E-2,-1.5463601E-1,2.1376519E-1,-1.1903808E-1,5.076923E-1],"split_indices":[271,76,109,305,310,562,328,1226,0,312,841,287,51,161,259,63,1236,15,0,0,0,0,494,0,0,0,0,0,0,0,0,49,0,0,0,0,0,13,32,0,0,0,0,0,0],"split_type":[0,0,0,0,0,0,0,0,0,0,0,0,0,0,0,0,0,0,0,0,0,0,0,0,0,0,0,0,0,0,0,0,0,0,0,0,0,0,0,0,0,0,0,0,0],"sum_hessian":[3.708843E2,3.3452478E2,3.6359505E1,3.1604132E2,1.848347E1,1.657438E1,1.9785124E1,3.146529E2,1.3884298E0,1.4404959E1,4.078512E0,1.2148761E1,4.42562E0,3.210744E0,1.657438E1,5.987603E0,3.0866528E2,1.3103306E1,1.3016529E0,2.7768595E0,1.3016529E0,1.5619835E0,1.0586777E1,3.3842976E0,1.0413224E0,1.5619835E0,1.6487603E0,1.0413224E0,1.5533058E1,1.5619835E0,4.42562E0,3.0623553E2,2.429752E0,1.0413224E0,1.2061983E1,9.458677E0,1.1280992E0,3.0207025E2,4.1652894E0,1.0413224E0,1.3884298E0,3.0102893E2,1.0413224E0,3.123967E0,1.0413224E0],"tree_param":{"num_deleted":"0","num_feature":"1280","num_nodes":"45","size_leaf_vector":"1"}},{"base_weights":[4.2290743E-2,-1.288918E-1,3.6115823E0,-3.9937776E-1,1.1272845E0,5.991107E-1,7.956886E0,-4.2265767E-1,6.950078E-1,4.0607053E-1,5.4923363E0,-1.4045635E-1,1.2163142E0,3.6072877E-1,2.6856134E0,5.366782E-1,-4.3938664E-1,2.3505232E0,-3.864804E-1,7.804725E0,6.213389E-1,9.7529066E-1,-4.6599388E-1,4.7826084E-1,5.723837E0,-4.846587E-1,4.3249553E-1,5.076923E-1,2.6272113E0,-1.03125006E-1,5.076923E-1,1.0955466E0,-1.2330962E-1,1.9572414E-1,-4.761579E-1,-2.8249705E-1,1.2425101E0,2.2736099E0,-8.8868946E-2,6.6801615E-2,-1.5299444E-1,1.19545065E-1,-1.4693516E-1,-1.4045635E-1,2.1376519E-1],"categories":[],"categories_nodes":[],"categories_segments":[],"categories_sizes":[],"default_left":[0,0,0,0,0,0,0,0,0,0,0,0,0,0,0,0,0,0,0,0,0,0,0,0,0,0,0,0,0,0,0,0,0,0,0,0,0,0,0,0,0,0,0,0,0],"id":2,"left_children":[1,3,5,7,9,11,13,15,-1,17,19,-1,-1,-1,-1,-1,21,23,25,27,29,31,33,35,37,39,-1,-1,-1,-1,-1,-1,-1,-1,41,43,-1,-1,-1,-1,-1,-1,-1,-1,-1],"loss_changes":[2.2768697E2,1.21353645E2,2.1846788E2,1.9538689E1,1.97065E2,4.30279E1,3.562149E1,1.1584724E1,0E0,8.629814E1,9.53598E1,0E0,0E0,0E0,0E0,0E0,1.138863E1,9.9488594E1,7.9180727E0,1.980484E1,4.664799E0,2.259894E1,3.5595093E0,3.3220413E1,6.573662E1,8.107052E-1,0E0,0E0,0E0,0E0,0E0,0E0,0E0,0E0,3.5775223E0,2.2660694E0,0E0,0E0,0E0,0E0,0E0,0E0,0E0,0E0,0E0],"parents":[2147483647,0,0,1,1,2,2,3,3,4,4,5,5,6,6,7,7,9,9,10,10,16,16,17,17,18,18,19,19,20,20,21,21,22,22,23,23,24,24,25,25,34,34,35,35],"right_children":[2,4,6,8,10,12,14,16,-1,18,20,-1,-1,-1,-1,-1,22,24,26,28,30,32,34,36,38,40,-1,-1,-1,-1,-1,-1,-1,-1,42,44,-1,-1,-1,-1,-1,-1,-1,-1,-1],"split_conditions":[9.509756E-1,4.0568513E-1,-1.5245673E-2,8.635562E-1,6.128509E-1,-7.1009435E-2,-1.1589288E-1,-2.5271627E-1,6.950078E-1,-4.462008E-2,-7.612331E-2,-1.4045635E-1,1.2163142E0,3.6072877E-1,2.6856134E0,5.366782E-1,-2.2899833E-1,7.656496E-1,2.9863432E-1,-1.0045833E-1,-1.101176E-1,-8.2417525E-2,-1.0334369E-1,-7.679682E-2,9.457652E-2,6.247497E-2,4.3249553E-1,5.076923E-1,2.6272113E0,-1.03125006E-1,5.076923E-1,1.0955466E0,-1.2330962E-1,1.9572414E-1,-2.3169307E-1,-4.994898E-2,1.2425101E0,2.2736099E0,-8.8868946E-2,6.6801615E-2,-1.5299444E-1,1.19545065E-1,-1.4693516E-1,-1.4045635E-1,2.1376519E-1],"split_indices":[1077,175,514,1008,1076,1190,714,771,0,341,1112,0,0,0,0,0,561,888,308,1052,7,192,785,117,427,50,0,0,0,0,0,0,0,0,645,51,0,0,0,0,0,0,0,0,0],"split_type":[0,0,0,0,0,0,0,0,0,0,0,0,0,0,0,0,0,0,0,0,0,0,0,0,0,0,0,0,0,0,0,0,0,0,0,0,0,0,0,0,0,0,0,0,0],"sum_hessian":[3.708843E2,3.5483057E2,1.6053719E1,2.9252478E2,6.2305786E1,1.0152893E1,5.9008265E0,2.9087604E2,1.6487603E0,5.4409092E1,7.896694E0,8.417356E0,1.7355372E0,1.0413224E0,4.859504E0,1.3884298E0,2.894876E2,1.518595E1,3.922314E1,4.946281E0,2.9504132E0,4.6859503E0,2.8480167E2,1.05E1,4.6859503E0,3.792149E1,1.3016529E0,1.0413224E0,3.9049587E0,1.9090909E0,1.0413224E0,1.0413224E0,3.644628E0,1.9958677E0,2.828058E2,9.458677E0,1.0413224E0,3.3842976E0,1.3016529E0,1.0413224E0,3.6880165E1,3.9049587E0,2.7890082E2,8.417356E0,1.0413224E0],"tree_param":{"num_deleted":"0","num_feature":"1280","num_nodes":"45","size_leaf_vector":"1"}},{"base_weights":[-3.5690498E-2,1.7164092E0,-2.6448736E-1,-3.267327E-1,3.854517E0,8.8985944E-1,-4.3844306E-1,4.3249553E-1,-1.498855E-1,5.778481E0,-1.9893618E-1,5.278594E0,1.20642826E-1,1.7268232E0,-4.6230823E-1,7.6661263E0,9.3279994E-1,2.1376519E-1,-1.3378379E-1,-1.04689665E-1,2.3606286E0,3.0568926E0,-1.9714187E-1,9.48583E-1,-8.8868946E-2,3.2709652E-1,-4.9630684E-1,8.488267E0,6.6801615E-2,9.48583E-1,-1.1903808E-1,1.7493205E0,-9.781592E-2,1.7861142E0,-4.1567335E-1,-3.827916E-1,9.580645E-1,-5.0351465E-1,1.598616E-1,4.8058254E-1,2.7768915E0,-9.781592E-2,1.0955466E0,-4.7550434E-1,2.1376519E-1,6.6801615E-2,-1.4104952E-1,-5.1066583E-1,-2.6851118E-2,-1.5199134E-1,6.6801615E-2,5.76699E-2,-1.5430681E-1,2.1376519E-1,-1.1821905E-1],"categories":[],"categories_nodes":[],"categories_segments":[],"categories_sizes":[],"default_left":[0,0,0,0,0,0,0,0,0,0,0,0,0,0,0,0,0,0,0,0,0,0,0,0,0,0,0,0,0,0,0,0,0,0,0,0,0,0,0,0,0,0,0,0,0,0,0,0,0,0,0,0,0,0,0],"id":3,"left_children":[1,3,5,7,9,11,13,-1,-1,15,17,19,21,23,25,27,29,-1,-1,-1,-1,31,33,-1,-1,35,37,39,-1,-1,-1,-1,-1,41,43,45,-1,47,-1,-1,-1,-1,-1,49,-1,-1,-1,51,53,-1,-1,-1,-1,-1,-1],"loss_changes":[1.4953307E2,1.8948216E2,6.661522E1,7.738129E0,1.659534E2,1.4628404E2,1.5643181E1,0E0,0E0,1.2423218E2,2.0668283E0,9.701015E1,3.611039E1,1.0642403E1,7.8095818E0,6.051941E1,1.6563805E1,0E0,0E0,0E0,0E0,3.734663E1,1.6031569E1,0E0,0E0,2.6389141E1,2.297676E0,3.3602966E1,0E0,0E0,0E0,0E0,0E0,1.5732149E1,2.5385175E0,6.763346E-1,0E0,9.140549E-1,0E0,0E0,0E0,0E0,0E0,7.985053E-1,0E0,0E0,0E0,7.9429626E-1,1.6596949E0,0E0,0E0,0E0,0E0,0E0,0E0],"parents":[2147483647,0,0,1,1,2,2,3,3,4,4,5,5,6,6,9,9,10,10,11,11,12,12,13,13,14,14,15,15,16,16,21,21,22,22,25,25,26,26,27,27,33,33,34,34,35,35,37,37,43,43,47,47,48,48],"right_children":[2,4,6,8,10,12,14,-1,-1,16,18,20,22,24,26,28,30,-1,-1,-1,-1,32,34,-1,-1,36,38,40,-1,-1,-1,-1,-1,42,44,46,-1,48,-1,-1,-1,-1,-1,50,-1,-1,-1,52,54,-1,-1,-1,-1,-1,-1],"split_conditions":[-1.6570799E-1,-6.140771E-2,-1.462458E-1,-2.0371793E-1,-1.4382875E-1,-2.1503079E-1,-2.1672279E-1,4.3249553E-1,-1.498855E-1,-1.5507023E-1,-1.7925006E-1,4.0347734E-1,-2.3328546E-1,-2.038384E-1,-2.1327287E-1,-1.3121326E-1,-1.9457513E-1,2.1376519E-1,-1.3378379E-1,-1.04689665E-1,2.3606286E0,-1.15944E-1,-1.936103E-1,9.48583E-1,-8.8868946E-2,-8.6397745E-2,6.969285E-1,-1.8663792E-1,6.6801615E-2,9.48583E-1,-1.1903808E-1,1.7493205E0,-9.781592E-2,-1.0239855E-1,1.5520558E0,-1.8975352E-1,9.580645E-1,1.0447688E0,1.598616E-1,4.8058254E-1,2.7768915E0,-9.781592E-2,1.0955466E0,-3.4486122E-2,2.1376519E-1,6.6801615E-2,-1.4104952E-1,-2.3018056E-1,-8.587913E-2,-1.5199134E-1,6.6801615E-2,5.76699E-2,-1.5430681E-1,2.1376519E-1,-1.1821905E-1],"split_indices":[818,531,661,416,488,456,1048,0,0,1269,48,562,875,0,997,457,407,0,0,0,0,844,1053,0,0,827,1156,1253,0,0,0,0,0,424,68,14,0,769,0,0,0,0,0,406,0,0,0,1269,13,0,0,0,0,0,0],"split_type":[0,0,0,0,0,0,0,0,0,0,0,0,0,0,0,0,0,0,0,0,0,0,0,0,0,0,0,0,0,0,0,0,0,0,0,0,0,0,0,0,0,0,0,0,0,0,0,0,0,0,0,0,0,0,0],"sum_hessian":[3.708843E2,4.2086777E1,3.2879752E2,2.1954546E1,2.013223E1,4.252066E1,2.8627686E2,1.3016529E0,2.0652893E1,1.3363636E1,6.768595E0,5.4669423E0,3.705372E1,2.3429751E0,2.839339E2,9.198347E0,4.1652894E0,1.0413224E0,5.727273E0,1.9958677E0,3.4710743E0,2.7768595E0,3.427686E1,1.0413224E0,1.3016529E0,1.1367768E1,2.7256613E2,8.157024E0,1.0413224E0,1.0413224E0,3.123967E0,1.1280992E0,1.6487603E0,2.6900826E0,3.1586777E1,9.805785E0,1.5619835E0,2.7117767E2,1.3884298E0,1.1280992E0,7.028926E0,1.6487603E0,1.0413224E0,3.0545454E1,1.0413224E0,1.0413224E0,8.764462E0,2.6709918E2,4.078512E0,2.9504133E1,1.0413224E0,1.1280992E0,2.6597107E2,1.0413224E0,3.0371902E0],"tree_param":{"num_deleted":"0","num_feature":"1280","num_nodes":"55","size_leaf_vector":"1"}},{"base_weights":[8.531488E-2,-1.5965924E-1,6.1558475E0,2.9573922E0,-3.3699524E-1,9.2433815E0,-8.661419E-2,2.7130812E-1,7.508944E0,2.9129887E0,-3.9966646E-1,8.0161947E-1,2.9178948E0,2.1376519E-1,-1.2393014E-1,9.28125E-1,-1.4326888E-1,2.6627278E0,-8.016195E-2,1.7643949E0,-1.1821905E-1,-4.5233104E-1,2.3795335E0,-4.7942057E-1,8.2500005E-1,1.7531251E0,-1.2199631E-1,9.7529066E-1,-5.0358117E-1,1.0955466E0,-1.2330962E-1,-1.5476449E-1,1.0559999E-1],"categories":[],"categories_nodes":[],"categories_segments":[],"categories_sizes":[],"default_left":[0,0,0,0,0,0,0,0,0,0,0,0,0,0,0,0,0,0,0,0,0,0,0,0,0,0,0,0,0,0,0,0,0],"id":4,"left_children":[1,3,5,7,9,11,13,15,17,19,21,-1,-1,-1,-1,-1,-1,-1,-1,-1,-1,23,25,27,-1,-1,-1,29,31,-1,-1,-1,-1],"loss_changes":[5.540206E2,1.991265E2,2.7931525E2,2.3510384E2,7.042315E1,4.7229004E0,1.8005538E0,2.9452688E1,7.84845E1,6.665163E1,5.0033154E1,0E0,0E0,0E0,0E0,0E0,0E0,0E0,0E0,0E0,0E0,2.9868011E1,6.3957474E1,1.1990936E1,0E0,0E0,0E0,2.259894E1,3.5756607E0,0E0,0E0,0E0,0E0],"parents":[2147483647,0,0,1,1,2,2,3,3,4,4,5,5,6,6,7,7,8,8,9,9,10,10,21,21,22,22,23,23,27,27,28,28],"right_children":[2,4,6,8,10,12,14,16,18,20,22,-1,-1,-1,-1,-1,-1,-1,-1,-1,-1,24,26,28,-1,-1,-1,30,32,-1,-1,-1,-1],"split_conditions":[1.6911211E0,-1.6597009E-1,3.1668946E-2,6.956769E-2,-2.0269123E-1,-1.0265599E-1,-1.0865319E-1,-1.5813613E-1,2.424354E-2,-1.5845788E-1,3.5198343E-1,8.0161947E-1,2.9178948E0,2.1376519E-1,-1.2393014E-1,9.28125E-1,-1.4326888E-1,2.6627278E0,-8.016195E-2,1.7643949E0,-1.1821905E-1,3.509052E-1,-1.4725843E-1,-1.3477223E-1,8.2500005E-1,1.7531251E0,-1.2199631E-1,-1.7661528E-1,4.3496004E-1,1.0955466E0,-1.2330962E-1,-1.5476449E-1,1.0559999E-1],"split_indices":[590,428,949,503,48,28,3,436,603,933,389,0,0,0,0,0,0,0,0,0,0,573,956,676,0,0,0,30,299,0,0,0,0],"split_type":[0,0,0,0,0,0,0,0,0,0,0,0,0,0,0,0,0,0,0,0,0,0,0,0,0,0,0,0,0,0,0,0,0],"sum_hessian":[3.708843E2,3.574339E2,1.3450414E1,1.8396694E1,3.390372E2,8.677686E0,4.7727275E0,1.2235538E1,6.161157E0,5.553719E0,3.3348346E2,1.0413224E0,7.6363635E0,1.0413224E0,3.731405E0,1.9090909E0,1.0326447E1,5.119835E0,1.0413224E0,2.5165288E0,3.0371902E0,3.281033E2,5.380165E0,3.261942E2,1.9090909E0,1.9090909E0,3.4710743E0,4.6859503E0,3.2150827E2,1.0413224E0,3.644628E0,3.17343E2,4.1652894E0],"tree_param":{"num_deleted":"0","num_feature":"1280","num_nodes":"33","size_leaf_vector":"1"}},{"base_weights":[-1.686744E-2,-4.3358293E-1,4.0601025E0,2.8688E0,-4.833356E-1,3.742634E-1,9.555223E0,-1.14557676E-1,1.9667779E0,5.0147057E-1,-5.160175E-1,-3.4765545E-1,1.654985E0,3.6072877E-1,3.0422208E0,-3.7439224E-1,1.3894737E0,1.9864078E-1,-1.5665601E-1,-1.4885597E-1,3.6072877E-1,-1.3998196E-1,6.6801615E-2],"categories":[],"categories_nodes":[],"categories_segments":[],"categories_sizes":[],"default_left":[0,0,0,0,0,0,0,0,0,0,0,0,0,0,0,0,0,0,0,0,0,0,0],"id":5,"left_children":[1,3,5,7,9,11,13,-1,-1,15,17,19,-1,-1,-1,21,-1,-1,-1,-1,-1,-1,-1],"loss_changes":[6.3356824E2,5.6970375E1,6.9686536E2,6.4412476E1,1.1013054E1,8.262339E1,5.5507812E1,0E0,0E0,4.23925E1,2.699913E0,5.202296E0,0E0,0E0,0E0,6.6539943E-1,0E0,0E0,0E0,0E0,0E0,0E0,0E0],"parents":[2147483647,0,0,1,1,2,2,3,3,4,4,5,5,6,6,9,9,10,10,11,11,15,15],"right_children":[2,4,6,8,10,12,14,-1,-1,16,18,20,-1,-1,-1,22,-1,-1,-1,-1,-1,-1,-1],"split_conditions":[3.018646E-1,-2.2611083E-1,-4.463325E-2,8.817316E-1,-1.8479781E-1,2.1458703E-1,7.7562936E-2,-1.14557676E-1,1.9667779E0,3.089044E-1,-2.2130606E-1,1.2509421E0,1.654985E0,3.6072877E-1,3.0422208E0,-3.596576E-2,1.3894737E0,1.9864078E-1,-1.5665601E-1,-1.4885597E-1,3.6072877E-1,-1.3998196E-1,6.6801615E-2],"split_indices":[1005,1107,202,168,347,84,43,0,0,775,358,40,0,0,0,2,0,0,0,0,0,0,0],"split_type":[0,0,0,0,0,0,0,0,0,0,0,0,0,0,0,0,0,0,0,0,0,0,0],"sum_hessian":[3.708843E2,3.3730167E2,3.3582645E1,4.1652894E0,3.3313635E2,2.073967E1,1.2842976E1,2.6900826E0,1.4752066E0,1.023967E1,3.228967E2,1.9004133E1,1.7355372E0,1.0413224E0,1.1801653E1,9.198347E0,1.0413224E0,1.1280992E0,3.217686E2,1.796281E1,1.0413224E0,8.157024E0,1.0413224E0],"tree_param":{"num_deleted":"0","num_feature":"1280","num_nodes":"23","size_leaf_vector":"1"}},{"base_weights":[3.153471E-2,-4.5092598E-1,4.4898977E0,-4.9232215E-1,3.9365482E0,2.0355208E0,8.764968E0,5.076923E-1,-5.042292E-1,-8.016195E-2,1.8100746E0,5.159719E0,7.096772E-2,-8.330098E-2,2.8948379E0,-5.162109E-1,5.076923E-1,7.895341E0,6.346152E-2,9.0349513E-1,-3.5424766E-1,-1.5666826E-1,2.1376519E-1,6.546559E-1,2.591131E0,2.1376519E-1,-1.0888326E-1,-1.4571944E-1,1.9864078E-1],"categories":[],"categories_nodes":[],"categories_segments":[],"categories_sizes":[],"default_left":[0,0,0,0,0,0,0,0,0,0,0,0,0,0,0,0,0,0,0,0,0,0,0,0,0,0,0,0,0],"id":6,"left_children":[1,3,5,7,9,11,13,-1,15,-1,-1,17,19,-1,-1,21,-1,23,25,-1,27,-1,-1,-1,-1,-1,-1,-1,-1],"loss_changes":[8.019421E2,6.3050995E1,3.6414276E2,9.547287E0,3.0316963E1,1.4957518E2,1.0645679E2,0E0,9.642349E0,0E0,0E0,1.3079039E2,2.1089148E1,0E0,0E0,2.8276138E0,0E0,7.0868835E0,1.4480637E0,0E0,2.310728E0,0E0,0E0,0E0,0E0,0E0,0E0,0E0,0E0],"parents":[2147483647,0,0,1,1,2,2,3,3,4,4,5,5,6,6,8,8,11,11,12,12,15,15,17,17,18,18,20,20],"right_children":[2,4,6,8,10,12,14,-1,16,-1,-1,18,20,-1,-1,22,-1,24,26,-1,28,-1,-1,-1,-1,-1,-1,-1,-1],"split_conditions":[7.779678E-1,1.3634624E0,-9.369622E-2,-1.5113913E-1,6.818146E-1,-9.11587E-2,3.7235758E-1,5.076923E-1,6.0387206E-1,-8.016195E-2,1.8100746E0,1.2579335E-1,-1.3799778E-1,-8.330098E-2,2.8948379E0,9.0318835E-1,5.076923E-1,-1.6083702E-1,-1.611498E-1,9.0349513E-1,-2.3211733E-2,-1.5666826E-1,2.1376519E-1,6.546559E-1,2.591131E0,2.1376519E-1,-1.0888326E-1,-1.4571944E-1,1.9864078E-1],"split_indices":[284,59,199,516,93,998,70,0,723,0,0,1147,1008,0,0,630,0,108,0,0,4,0,0,0,0,0,0,0,0],"split_type":[0,0,0,0,0,0,0,0,0,0,0,0,0,0,0,0,0,0,0,0,0,0,0,0,0,0,0,0,0],"sum_hessian":[3.708843E2,3.3547934E2,3.540496E1,3.3322314E2,2.2561984E0,2.3429752E1,1.1975206E1,1.0413224E0,3.3218182E2,1.0413224E0,1.214876E0,8.417356E0,1.5012397E1,1.1280992E0,1.0847108E1,3.311405E2,1.0413224E0,5.119835E0,3.2975206E0,1.1280992E0,1.3884297E1,3.3009918E2,1.0413224E0,1.0413224E0,4.078512E0,1.0413224E0,2.2561984E0,1.2756199E1,1.1280992E0],"tree_param":{"num_deleted":"0","num_feature":"1280","num_nodes":"29","size_leaf_vector":"1"}},{"base_weights":[1.955619E-3,-4.300285E-1,5.7466326E0,-1.5665822E-1,8.565415E-1,8.236812E0,9.107634E-2,-2.4647304E-1,5.402135E0,9.003999E0,2.1290319E-2,6.546559E-1,-1.3735694E-1,3.96E-1,-1.4837447E-1,2.3128555E0,-8.8868946E-2,3.9115193E-1,2.901537E0],"categories":[],"categories_nodes":[],"categories_segments":[],"categories_sizes":[],"default_left":[0,0,0,0,0,0,0,0,0,0,0,0,0,0,0,0,0,0,0],"id":7,"left_children":[1,3,5,-1,7,9,11,13,15,17,-1,-1,-1,-1,-1,-1,-1,-1,-1],"loss_changes":[9.253428E2,4.1570633E1,3.6652258E2,0E0,1.1946787E2,1.12721436E2,1.1311063E1,8.393831E0,6.33528E1,7.240405E1,0E0,0E0,0E0,0E0,0E0,0E0,0E0,0E0,0E0],"parents":[2147483647,0,0,1,1,2,2,4,4,5,5,6,6,7,7,8,8,9,9],"right_children":[2,4,6,-1,8,10,12,14,16,18,-1,-1,-1,-1,-1,-1,-1,-1,-1],"split_conditions":[1.1608076E0,4.3425626E-1,-9.369622E-2,-1.5665822E-1,3.2457605E-1,1.9637314E0,-2.098887E-1,-1.6920772E-1,-1.5127216E-1,-1.7365965E-1,2.1290319E-2,6.546559E-1,-1.3735694E-1,3.96E-1,-1.4837447E-1,2.3128555E0,-8.8868946E-2,3.9115193E-1,2.901537E0],"split_indices":[964,154,199,0,800,665,12,113,199,1029,0,0,0,0,0,0,0,0,0],"split_type":[0,0,0,0,0,0,0,0,0,0,0,0,0,0,0,0,0,0,0],"sum_hessian":[3.708843E2,3.458058E2,2.5078512E1,3.232438E2,2.2561983E1,1.7095041E1,7.983471E0,1.8917355E1,3.644628E0,1.5533058E1,1.5619835E0,1.0413224E0,6.9421487E0,1.9958677E0,1.6921488E1,2.3429751E0,1.3016529E0,1.4752066E0,1.4057852E1],"tree_param":{"num_deleted":"0","num_feature":"1280","num_nodes":"19","size_leaf_vector":"1"}},{"base_weights":[1.2711653E-2,-2.700033E-1,3.0261016E0,-3.3550555E-1,4.6373525E0,1.9595335E-1,6.5602794E0,-3.9571303E-1,2.8497407E0,-8.330098E-2,1.9004819E0,-2.6252985E-1,9.971619E-1,-1.2452831E-1,9.168127E0,-4.4869834E-1,2.340575E0,-1.2941179E-1,5.3125734E0,5.076923E-1,-1.4748605E-1,7.264926E-1,2.939621E0,-4.8465037E-1,1.1065089E0,-2.0754719E-1,1.8276131E0,6.6801615E-2,-1.0146414E-1,1.9667779E0,3.6072877E-1,-4.939253E-1,3.3961165E-1,1.6834008E0,-1.3347854E-1,6.6801615E-2,-1.15536116E-1,3.021544E-1,-1.5097648E-1],"categories":[],"categories_nodes":[],"categories_segments":[],"categories_sizes":[],"default_left":[0,0,0,0,0,0,0,0,0,0,0,0,0,0,0,0,0,0,0,0,0,0,0,0,0,0,0,0,0,0,0,0,0,0,0,0,0,0,0],"id":8,"left_children":[1,3,5,7,9,11,13,15,17,-1,-1,19,-1,-1,21,23,25,27,29,-1,-1,-1,-1,31,33,35,-1,-1,-1,-1,-1,37,-1,-1,-1,-1,-1,-1,-1],"loss_changes":[3.1763654E2,1.1113732E2,3.1857977E2,6.582265E1,3.978827E1,2.7818262E1,2.6193335E2,4.91798E1,4.7499763E1,0E0,0E0,8.585797E0,0E0,0E0,2.0397217E1,1.8791832E1,6.308319E1,3.5934907E-1,1.0087692E1,0E0,0E0,0E0,0E0,5.354698E0,5.6184532E1,4.5384252E-1,0E0,0E0,0E0,0E0,0E0,4.9700317E0,0E0,0E0,0E0,0E0,0E0,0E0,0E0],"parents":[2147483647,0,0,1,1,2,2,3,3,4,4,5,5,6,6,7,7,8,8,11,11,14,14,15,15,16,16,17,17,18,18,23,23,24,24,25,25,31,31],"right_children":[2,4,6,8,10,12,14,16,18,-1,-1,20,-1,-1,22,24,26,28,30,-1,-1,-1,-1,32,34,36,-1,-1,-1,-1,-1,38,-1,-1,-1,-1,-1,-1,-1],"split_conditions":[5.8573995E-2,1.5092098E0,1.040281E-1,5.4106653E-2,-1.5036821E-1,3.513133E-1,1.6773173E-1,2.2886889E-2,-1.1528302E-1,-8.330098E-2,1.9004819E0,-1.9516626E-1,9.971619E-1,-1.2452831E-1,-4.507144E-2,4.8188385E-1,1.9014531E0,-1.8142158E-1,-1.8619104E-1,5.076923E-1,-1.4748605E-1,7.264926E-1,2.939621E0,5.8530945E-1,-1.6252497E-1,-1.7771131E-1,1.8276131E0,6.6801615E-2,-1.0146414E-1,1.9667779E0,3.6072877E-1,-2.3817341E-1,3.3961165E-1,1.6834008E0,-1.3347854E-1,6.6801615E-2,-1.15536116E-1,3.021544E-1,-1.5097648E-1],"split_indices":[388,229,411,1016,557,922,536,543,874,0,0,54,0,0,226,425,830,6,305,0,0,0,0,659,1033,0,0,0,0,0,0,500,0,0,0,0,0,0,0],"split_type":[0,0,0,0,0,0,0,0,0,0,0,0,0,0,0,0,0,0,0,0,0,0,0,0,0,0,0,0,0,0,0,0,0,0,0,0,0,0,0],"sum_hessian":[3.708843E2,3.3990497E2,3.097934E1,3.363471E2,3.5578513E0,1.7789257E1,1.3190083E1,3.3096695E2,5.380165E0,1.1280992E0,2.429752E0,1.6314049E1,1.4752066E0,3.8181818E0,9.371901E0,3.255E2,5.4669423E0,2.8636365E0,2.5165288E0,1.0413224E0,1.5272727E1,1.214876E0,8.157024E0,3.1881818E2,6.681818E0,3.8181818E0,1.6487603E0,1.0413224E0,1.822314E0,1.4752066E0,1.0413224E0,3.176901E2,1.1280992E0,1.0413224E0,5.640496E0,1.0413224E0,2.7768595E0,1.3016529E0,3.1638843E2],"tree_param":{"num_deleted":"0","num_feature":"1280","num_nodes":"39","size_leaf_vector":"1"}},{"base_weights":[-4.6446532E-2,-4.298315E-1,3.3890972E0,1.6703383E0,-4.6183887E-1,5.009901E-1,7.44972E0,-1.1736402E-1,1.3448832E0,-4.7966644E-1,1.5345502E0,3.6604886E0,-3.3882865E-1,8.876503E0,6.7396057E-1,3.9115193E-1,-4.9167982E-1,-8.330098E-2,8.0161947E-1,-9.9697895E-2,1.7855281E0,3.6072877E-1,-1.4841671E-1,2.9291863E0,2.8546712E-1,5.076923E-1,-9.9697895E-2,7.951807E-1,-5.037432E-1,5.076923E-1,-9.134949E-2,-5.0983524E-1,1.598616E-1,-1.5478759E-1,7.5380705E-2],"categories":[],"categories_nodes":[],"categories_segments":[],"categories_sizes":[],"default_left":[0,0,0,0,0,0,0,0,0,0,0,0,0,0,0,0,0,0,0,0,0,0,0,0,0,0,0,0,0,0,0,0,0,0,0],"id":9,"left_children":[1,3,5,7,9,11,13,-1,-1,15,17,19,21,23,25,-1,27,-1,-1,-1,-1,-1,-1,-1,-1,-1,-1,29,31,-1,-1,33,-1,-1,-1],"loss_changes":[4.9127887E2,2.331989E1,4.3541956E2,3.2207016E1,1.2523224E1,6.2148E1,1.4378455E2,0E0,0E0,7.690567E0,7.2754827E0,4.6851547E1,5.171959E0,8.013275E1,4.4327326E0,0E0,5.4852676E0,0E0,0E0,0E0,0E0,0E0,0E0,0E0,0E0,0E0,0E0,3.8989325E0,2.324791E0,0E0,0E0,1.6383667E0,0E0,0E0,0E0],"parents":[2147483647,0,0,1,1,2,2,3,3,4,4,5,5,6,6,9,9,10,10,11,11,12,12,13,13,14,14,16,16,27,27,28,28,31,31],"right_children":[2,4,6,8,10,12,14,-1,-1,16,18,20,22,24,26,-1,28,-1,-1,-1,-1,-1,-1,-1,-1,-1,-1,30,32,-1,-1,34,-1,-1,-1],"split_conditions":[2.5562992E0,-2.1560365E-1,1.7860887E0,-1.3778374E-1,2.8728585E0,1.7568557E-2,-1.7293243E-1,-1.1736402E-1,1.3448832E0,-2.4714118E-1,-5.1383436E-2,-3.6352303E-2,-1.7485343E-1,6.527642E-1,-9.871582E-2,3.9115193E-1,-2.3171003E-1,-8.330098E-2,8.0161947E-1,-9.9697895E-2,1.7855281E0,3.6072877E-1,-1.4841671E-1,2.9291863E0,2.8546712E-1,5.076923E-1,-9.9697895E-2,-1.573253E-1,1.1923908E0,5.076923E-1,-9.134949E-2,3.9267294E0,1.598616E-1,-1.5478759E-1,7.5380705E-2],"split_indices":[830,550,56,459,266,177,996,0,0,1165,11,11,1188,413,1,0,65,0,0,0,0,0,0,0,0,0,0,5,187,0,0,571,0,0,0],"split_type":[0,0,0,0,0,0,0,0,0,0,0,0,0,0,0,0,0,0,0,0,0,0,0,0,0,0,0,0,0,0,0,0,0,0,0],"sum_hessian":[3.708843E2,3.3443802E2,3.644628E1,4.252066E0,3.3018594E2,2.1954546E1,1.4491735E1,2.9504132E0,1.3016529E0,3.2801654E2,2.1694214E0,3.9049587E0,1.8049587E1,1.1714876E1,2.7768595E0,1.4752066E0,3.2654132E2,1.1280992E0,1.0413224E0,1.7355372E0,2.1694214E0,1.0413224E0,1.7008265E1,1.0326447E1,1.3884298E0,1.0413224E0,1.7355372E0,2.429752E0,3.2411157E2,1.0413224E0,1.3884298E0,3.2272314E2,1.3884298E0,3.2046695E2,2.2561984E0],"tree_param":{"num_deleted":"0","num_feature":"1280","num_nodes":"35","size_leaf_vector":"1"}},{"base_weights":[7.333636E-3,-2.8976238E-1,3.0561657E0,-3.3842215E-1,4.4594593E0,6.8400466E-1,6.6840763E0,-4.0635002E-1,1.8605865E0,1.9667779E0,-8.016195E-2,1.3093549E0,1.672297E-1,1.5657297E0,8.451513E0,-4.3628433E-1,2.8900805E0,1.884633E0,-1.366864E-1,9.134948E-1,-2.2000001E-1,-1.0888326E-1,1.0842011E0,2.7513855E0,5.910448E-1,4.2341617E-1,-4.9271452E-1,1.3894737E0,-8.016195E-2,3.7258065E-1,-4.3212333E-1,-1.21520124E-1,1.1343751E0,6.193029E-1,-5.023636E-1,6.6801615E-2,-1.4705572E-1,-1.14272356E-1,6.546559E-1,3.6072877E-1,-8.016195E-2,-1.5264557E-1,6.361446E-2],"categories":[],"categories_nodes":[],"categories_segments":[],"categories_sizes":[],"default_left":[0,0,0,0,0,0,0,0,0,0,0,0,0,0,0,0,0,0,0,0,0,0,0,0,0,0,0,0,0,0,0,0,0,0,0,0,0,0,0,0,0,0,0],"id":10,"left_children":[1,3,5,7,9,11,13,15,17,-1,-1,-1,19,21,23,25,27,-1,-1,-1,29,-1,-1,-1,-1,31,33,-1,-1,-1,35,37,-1,39,41,-1,-1,-1,-1,-1,-1,-1,-1],"loss_changes":[3.3773682E2,8.003029E1,2.8035028E2,5.113396E1,3.659812E1,3.9463547E1,1.0414557E2,3.3624317E1,1.08193954E2,0E0,0E0,0E0,2.2478033E1,1.9317253E1,2.5864075E1,1.6018665E1,1.8187237E1,0E0,0E0,0E0,6.175044E0,0E0,0E0,0E0,0E0,3.817466E1,3.597496E0,0E0,0E0,0E0,7.410195E-1,1.2006937E1,0E0,1.9148606E0,1.5107117E0,0E0,0E0,0E0,0E0,0E0,0E0,0E0,0E0],"parents":[2147483647,0,0,1,1,2,2,3,3,4,4,5,5,6,6,7,7,8,8,12,12,13,13,14,14,15,15,16,16,20,20,25,25,26,26,30,30,31,31,33,33,34,34],"right_children":[2,4,6,8,10,12,14,16,18,-1,-1,-1,20,22,24,26,28,-1,-1,-1,30,-1,-1,-1,-1,32,34,-1,-1,-1,36,38,-1,40,42,-1,-1,-1,-1,-1,-1,-1,-1],"split_conditions":[6.478586E-1,6.8900526E-1,-1.8213184E-3,9.180089E-1,6.416951E-1,-1.5569027E-1,2.296199E-1,6.097767E-1,-1.4768296E-1,1.9667779E0,-8.016195E-2,1.3093549E0,-1.2726367E-1,-6.533257E-2,-6.238116E-2,-1.207362E-1,-1.5304936E-1,1.884633E0,-1.366864E-1,9.134948E-1,-1.114569E-1,-1.0888326E-1,1.0842011E0,2.7513855E0,5.910448E-1,8.8988477E-1,-1.8964608E-1,1.3894737E0,-8.016195E-2,3.7258065E-1,-1.77238E-1,6.073596E-1,1.1343751E0,-7.088683E-2,1.0555416E0,6.6801615E-2,-1.4705572E-1,-1.14272356E-1,6.546559E-1,3.6072877E-1,-8.016195E-2,-1.5264557E-1,6.361446E-2],"split_indices":[488,472,330,901,1185,322,901,1244,154,0,0,0,331,278,541,4,382,0,0,0,442,0,0,0,0,487,1225,0,0,0,25,901,0,1,988,0,0,0,0,0,0,0,0],"split_type":[0,0,0,0,0,0,0,0,0,0,0,0,0,0,0,0,0,0,0,0,0,0,0,0,0,0,0,0,0,0,0,0,0,0,0,0,0,0,0,0,0,0,0],"sum_hessian":[3.708843E2,3.3877686E2,3.2107437E1,3.3626035E2,2.5165288E0,2.013223E1,1.1975206E1,3.2697522E2,9.285124E0,1.4752066E0,1.0413224E0,1.5619835E0,1.8570248E1,3.5578513E0,8.417356E0,3.2489258E2,2.0826447E0,2.6033058E0,6.681818E0,1.3884298E0,1.7181818E1,2.2561984E0,1.3016529E0,7.2024794E0,1.214876E0,1.961157E1,3.05281E2,1.0413224E0,1.0413224E0,1.5619835E0,1.5619835E1,1.770248E1,1.9090909E0,2.0826447E0,3.0319836E2,1.0413224E0,1.4578512E1,1.6661158E1,1.0413224E0,1.0413224E0,1.0413224E0,3.007686E2,2.429752E0],"tree_param":{"num_deleted":"0","num_feature":"1280","num_nodes":"43","size_leaf_vector":"1"}},{"base_weights":[3.153471E-2,-3.7182692E-1,5.1377745E0,3.252738E0,-4.2276993E-1,4.5797992E-1,7.6997414E0,2.3114954E-1,1.777742E0,-4.6015376E-1,2.4433362E0,1.0347894E0,-1.3981777E-1,8.446584E0,3.0937502E-1,2.1376519E-1,-8.8868946E-2,-4.747901E-1,6.546559E-1,-1.03125006E-1,1.374571E0,9.20528E0,4.486405E-1,-4.9791625E-1,4.342777E-1,6.546559E-1,9.603398E0,-5.0983894E-1,1.8523313E-1,-3.2085857E-1,7.878893E-1,2.993886E0,9.0349513E-1,-1.5571502E-1,7.046263E-2,5.076923E-1,-1.2770899E-1,6.6801615E-2,-1.3284346E-1],"categories":[],"categories_nodes":[],"categories_segments":[],"categories_sizes":[],"default_left":[0,0,0,0,0,0,0,0,0,0,0,0,0,0,0,0,0,0,0,0,0,0,0,0,0,0,0,0,0,0,0,0,0,0,0,0,0,0,0],"id":11,"left_children":[1,3,5,7,9,11,13,15,-1,17,19,-1,-1,21,-1,-1,-1,23,-1,-1,-1,25,-1,27,29,-1,31,33,35,37,-1,-1,-1,-1,-1,-1,-1,-1,-1],"loss_changes":[7.67866E2,6.518723E1,3.2370715E2,3.8247166E1,3.7734573E1,3.1235935E1,7.881555E1,1.0597966E0,0E0,1.41129E1,2.8741512E1,0E0,0E0,6.8849E1,0E0,0E0,0E0,7.302902E0,0E0,0E0,0E0,1.7991577E1,0E0,2.7756958E0,1.5569136E1,0E0,1.9075928E0,2.343132E0,6.594734E0,5.962882E-1,0E0,0E0,0E0,0E0,0E0,0E0,0E0,0E0,0E0],"parents":[2147483647,0,0,1,1,2,2,3,3,4,4,5,5,6,6,7,7,9,9,10,10,13,13,17,17,21,21,23,23,24,24,26,26,27,27,28,28,29,29],"right_children":[2,4,6,8,10,12,14,16,-1,18,20,-1,-1,22,-1,-1,-1,24,-1,-1,-1,26,-1,28,30,-1,32,34,36,38,-1,-1,-1,-1,-1,-1,-1,-1,-1],"split_conditions":[1.0139822E0,-2.3025918E-1,-1.1645416E-1,-1.3102955E-1,3.8869044E-1,7.262605E-2,6.946881E-1,-1.4342146E-1,1.777742E0,4.167212E-1,1.4641197E-1,1.0347894E0,-1.3981777E-1,2.6117963E-1,3.0937502E-1,2.1376519E-1,-8.8868946E-2,8.644674E-1,6.546559E-1,-1.03125006E-1,1.374571E0,-1.5386064E-1,4.486405E-1,8.612073E-1,9.291687E-2,6.546559E-1,-1.0205205E-1,1.9207457E-2,-1.6685367E-1,-9.4803564E-2,7.878893E-1,2.993886E0,9.0349513E-1,-1.5571502E-1,7.046263E-2,5.076923E-1,-1.2770899E-1,6.6801615E-2,-1.3284346E-1],"split_indices":[657,781,1125,1138,641,386,1116,6,0,45,341,0,0,431,0,0,0,341,0,0,0,1001,0,698,124,0,1171,913,254,1,0,0,0,0,0,0,0,0,0],"split_type":[0,0,0,0,0,0,0,0,0,0,0,0,0,0,0,0,0,0,0,0,0,0,0,0,0,0,0,0,0,0,0,0,0,0,0,0,0,0,0],"sum_hessian":[3.708843E2,3.445909E2,2.6293388E1,3.9049587E0,3.4068594E2,9.719008E0,1.657438E1,2.3429751E0,1.5619835E0,3.371281E2,3.5578513E0,1.6487603E0,8.070248E0,1.4665289E1,1.9090909E0,1.0413224E0,1.3016529E0,3.360868E2,1.0413224E0,1.9090909E0,1.6487603E0,1.2929752E1,1.7355372E0,3.281901E2,7.896694E0,1.0413224E0,1.188843E1,3.228099E2,5.380165E0,6.5082645E0,1.3884298E0,1.076033E1,1.1280992E0,3.1916528E2,3.644628E0,1.0413224E0,4.338843E0,1.0413224E0,5.4669423E0],"tree_param":{"num_deleted":"0","num_feature":"1280","num_nodes":"39","size_leaf_vector":"1"}},{"base_weights":[1.5400661E-2,-4.0549234E-1,3.6354542E0,3.0031471E0,-4.5854583E-1,8.719631E-1,7.3104224E0,-1.1245594E-1,1.8743203E0,-4.7651482E-1,6.067742E-1,-3.954173E-1,6.048043E0,8.716981E0,-1.1245594E-1,-4.9461687E-1,4.9613795E-1,2.1376519E-1,-1.4870144E-1,-8.016195E-2,2.3841743E0,9.370631E0,1.9864078E-1,-5.0988746E-1,5.6283665E-1,6.546559E-1,2.945483E0,-5.190694E-1,2.643253E-1,-1.5665191E-1,3.4256052E-2,3.6072877E-1,-1.113253E-1],"categories":[],"categories_nodes":[],"categories_segments":[],"categories_sizes":[],"default_left":[0,0,0,0,0,0,0,0,0,0,0,0,0,0,0,0,0,0,0,0,0,0,0,0,0,0,0,0,0,0,0,0,0],"id":12,"left_children":[1,3,5,7,9,11,13,-1,-1,15,-1,17,19,21,-1,23,-1,-1,-1,-1,-1,25,-1,27,-1,-1,-1,29,31,-1,-1,-1,-1],"loss_changes":[5.6809766E2,6.1786663E1,3.880208E2,5.990575E1,1.5667259E1,1.5525177E2,1.8198645E2,0E0,0E0,1.3475716E1,0E0,2.536663E0,5.7831024E1,6.759314E1,0E0,1.2767349E1,0E0,0E0,0E0,0E0,0E0,2.0048096E1,0E0,2.4470978E0,0E0,0E0,0E0,6.914444E-1,3.1113217E0,0E0,0E0,0E0,0E0],"parents":[2147483647,0,0,1,1,2,2,3,3,4,4,5,5,6,6,9,9,11,11,12,12,13,13,15,15,21,21,23,23,27,27,28,28],"right_children":[2,4,6,8,10,12,14,-1,-1,16,-1,18,20,22,-1,24,-1,-1,-1,-1,-1,26,-1,28,-1,-1,-1,30,32,-1,-1,-1,-1],"split_conditions":[5.6454474E-1,-2.1319887E-1,7.794294E-2,-6.1168987E-2,3.0205646E0,-7.344282E-2,8.153699E-1,-1.1245594E-1,1.8743203E0,3.6604294E-1,6.067742E-1,-7.327648E-2,1.428395E-1,1.244745E-1,-1.1245594E-1,3.7672E-1,4.9613795E-1,2.1376519E-1,-1.4870144E-1,-8.016195E-2,2.3841743E0,-1.9621968E-1,1.9864078E-1,-3.3572208E-2,5.6283665E-1,6.546559E-1,2.945483E0,1.6019177E-1,-1.7875123E-1,-1.5665191E-1,3.4256052E-2,3.6072877E-1,-1.113253E-1],"split_indices":[1063,549,172,136,665,1131,662,0,0,840,0,18,228,454,0,527,0,0,0,0,0,1237,0,874,0,0,0,117,15,0,0,0,0],"split_type":[0,0,0,0,0,0,0,0,0,0,0,0,0,0,0,0,0,0,0,0,0,0,0,0,0,0,0,0,0,0,0,0,0],"sum_hessian":[3.708843E2,3.330496E2,3.783471E1,4.252066E0,3.2879752E2,2.2301653E1,1.5533058E1,2.5165288E0,1.7355372E0,3.2723553E2,1.5619835E0,1.8657024E1,3.644628E0,1.3016529E1,2.5165288E0,3.252397E2,1.9958677E0,1.0413224E0,1.7615702E1,1.0413224E0,2.6033058E0,1.188843E1,1.1280992E0,3.2393802E2,1.3016529E0,1.0413224E0,1.0847108E1,3.2046695E2,3.4710743E0,3.1907852E2,1.3884298E0,1.0413224E0,2.429752E0],"tree_param":{"num_deleted":"0","num_feature":"1280","num_nodes":"33","size_leaf_vector":"1"}},{"base_weights":[-3.4223977E-3,-4.307965E-1,6.433962E0,2.3428729E0,-4.902282E-1,1.1605763E0,8.652285E0,-2.5581396E-1,2.024451E0,-5.132471E-1,2.8448272E-1,3.6294415E0,-1.2992127E-1,-8.016195E-2,9.283219E0,6.6801615E-2,-1.2330962E-1,-1.5666938E-1,2.2930513E-1,-1.4060871E-1,1.0955466E0,1.7493205E0,-8.330098E-2,2.9383829E0,3.6072877E-1],"categories":[],"categories_nodes":[],"categories_segments":[],"categories_sizes":[],"default_left":[0,0,0,0,0,0,0,0,0,0,0,0,0,0,0,0,0,0,0,0,0,0,0,0,0],"id":13,"left_children":[1,3,5,7,9,11,13,15,-1,17,19,21,-1,-1,23,-1,-1,-1,-1,-1,-1,-1,-1,-1,-1],"loss_changes":[1.0258892E3,5.878939E1,2.6152753E2,8.7680786E1,6.2655945E0,3.3161613E1,9.356897E1,5.138191E-1,0E0,4.2284546E0,2.845705E1,2.9628933E1,0E0,0E0,5.0806763E1,0E0,0E0,0E0,0E0,0E0,0E0,0E0,0E0,0E0,0E0],"parents":[2147483647,0,0,1,1,2,2,3,3,4,4,5,5,6,6,7,7,9,9,10,10,11,11,14,14],"right_children":[2,4,6,8,10,12,14,16,-1,18,20,22,-1,-1,24,-1,-1,-1,-1,-1,-1,-1,-1,-1,-1],"split_conditions":[3.1456845E0,-2.1013477E-1,-4.2184178E-2,-5.8699872E-2,3.3171175E0,-1.4705095E-1,-5.3347845E-2,-2.0028521E-1,2.024451E0,1.7638142E0,5.07067E-1,-1.9749083E-1,-1.2992127E-1,-8.016195E-2,1.4508434E-1,6.6801615E-2,-1.2330962E-1,-1.5666938E-1,2.2930513E-1,-1.4060871E-1,1.0955466E0,1.7493205E0,-8.330098E-2,2.9383829E0,3.6072877E-1],"split_indices":[943,549,1173,853,1072,452,149,0,0,1047,631,103,0,0,47,0,0,0,0,0,0,0,0,0,0],"split_type":[0,0,0,0,0,0,0,0,0,0,0,0,0,0,0,0,0,0,0,0,0,0,0,0,0],"sum_hessian":[3.708843E2,3.4866943E2,2.2214876E1,6.5082645E0,3.4216116E2,7.028926E0,1.518595E1,4.6859503E0,1.822314E0,3.326157E2,9.545455E0,2.2561984E0,4.7727275E0,1.0413224E0,1.4144629E1,1.0413224E0,3.644628E0,3.3088016E2,1.7355372E0,8.504132E0,1.0413224E0,1.1280992E0,1.1280992E0,1.3103306E1,1.0413224E0],"tree_param":{"num_deleted":"0","num_feature":"1280","num_nodes":"25","size_leaf_vector":"1"}},{"base_weights":[-8.409265E-2,2.8420274E0,-2.2185348E-1,-3.897256E-2,5.682617E0,-4.35203E-1,6.7161494E-1,5.076923E-1,-1.3818546E-1,7.551813E0,-2.9490631E-2,2.4293147E-1,-5.1023984E-1,3.8025045E0,-2.5581396E-1,3.6072877E-1,2.5695045E0,-8.016195E-2,6.6801615E-2,-3.0841124E-1,3.1799126E0,2.1376519E-1,-5.1791793E-1,6.593132E0,8.8388294E-1,-4.3641734E-1,2.5445783E0,-1.507558E-1,6.546559E-1,1.8276131E0,-1.0616623E-1,4.925373E-2,-1.5653242E-1,1.1112738E-1,2.5156653E0,-2.02525E-1,1.3894737E0,-1.540448E-1,5.076923E-1,1.3894737E0,-9.134949E-2,2.1376519E-1,-1.3408127E-1],"categories":[],"categories_nodes":[],"categories_segments":[],"categories_sizes":[],"default_left":[0,0,0,0,0,0,0,0,0,0,0,0,0,0,0,0,0,0,0,0,0,0,0,0,0,0,0,0,0,0,0,0,0,0,0,0,0,0,0,0,0,0,0],"id":14,"left_children":[1,3,5,7,9,11,13,-1,-1,15,17,19,21,23,25,-1,-1,-1,-1,27,29,-1,31,33,35,37,39,-1,-1,-1,-1,-1,-1,-1,-1,41,-1,-1,-1,-1,-1,-1,-1],"loss_changes":[1.5053885E2,1.3765416E2,6.8170715E1,7.5907054E0,9.058057E1,1.4781799E1,2.0142245E2,0E0,0E0,3.0746094E1,2.4428259E-1,4.8548836E1,2.8071213E0,1.2317642E2,2.851978E1,0E0,0E0,0E0,0E0,1.3494362E1,5.0846268E1,0E0,7.660675E-1,8.547809E1,3.716114E1,9.360978E0,2.1803701E1,0E0,0E0,0E0,0E0,0E0,0E0,0E0,0E0,2.0753665E0,0E0,0E0,0E0,0E0,0E0,0E0,0E0],"parents":[2147483647,0,0,1,1,2,2,3,3,4,4,5,5,6,6,9,9,10,10,11,11,12,12,13,13,14,14,19,19,20,20,22,22,23,23,24,24,25,25,26,26,35,35],"right_children":[2,4,6,8,10,12,14,-1,-1,16,18,20,22,24,26,-1,-1,-1,-1,28,30,-1,32,34,36,38,40,-1,-1,-1,-1,-1,-1,-1,-1,42,-1,-1,-1,-1,-1,-1,-1],"split_conditions":[-1.959728E-1,1.6281099E0,7.525228E-1,-6.849045E-2,-1.4474514E-1,-1.8922584E-1,-1.7353114E-1,5.076923E-1,-1.3818546E-1,-1.6441461E-1,-1.8418759E-1,3.125082E-1,-2.243035E-1,-1.9134815E-1,-8.681047E-2,3.6072877E-1,2.5695045E0,-8.016195E-2,6.6801615E-2,-6.50849E-2,-1.87275E-1,2.1376519E-1,-2.29234E-1,-1.292451E-1,1.410521E-1,1.1232142E0,3.299604E-1,-1.507558E-1,6.546559E-1,1.8276131E0,-1.0616623E-1,4.925373E-2,-1.5653242E-1,1.1112738E-1,2.5156653E0,-1.6790688E-1,1.3894737E0,-1.540448E-1,5.076923E-1,1.3894737E0,-9.134949E-2,2.1376519E-1,-1.3408127E-1],"split_indices":[767,836,982,321,837,810,1233,0,0,189,0,307,750,285,674,0,0,0,0,797,129,0,1130,708,336,77,126,0,0,0,0,0,0,0,0,35,0,0,0,0,0,0,0],"split_type":[0,0,0,0,0,0,0,0,0,0,0,0,0,0,0,0,0,0,0,0,0,0,0,0,0,0,0,0,0,0,0,0,0,0,0,0,0,0,0,0,0,0,0],"sum_hessian":[3.708843E2,1.5793388E1,3.550909E2,8.330579E0,7.46281E0,2.8705786E2,6.803306E1,1.0413224E0,7.289256E0,5.380165E0,2.0826447E0,2.8376034E1,2.5868182E2,1.4838843E1,5.3194214E1,1.0413224E0,4.338843E0,1.0413224E0,1.0413224E0,2.4644629E1,3.731405E0,1.0413224E0,2.576405E2,6.9421487E0,7.896694E0,5.076446E1,2.429752E0,2.3603306E1,1.0413224E0,1.6487603E0,2.0826447E0,1.214876E0,2.5642563E2,1.822314E0,5.119835E0,6.855372E0,1.0413224E0,4.972314E1,1.0413224E0,1.0413224E0,1.3884298E0,1.0413224E0,5.8140497E0],"tree_param":{"num_deleted":"0","num_feature":"1280","num_nodes":"43","size_leaf_vector":"1"}},{"base_weights":[2.0778678E-2,4.5824494E0,-1.9907075E-1,9.122422E-1,8.019422E0,1.8142644E0,-3.8729745E-1,-2.0946991E-1,1.2903113E0,2.7532547E0,-8.016195E-2,4.893001E0,-2.3774879E-1,1.784463E0,-4.227183E-1,-1.3465406E-1,2.1376519E-1,7.5628614E0,1.256664E-1,5.910448E-1,-1.4845856E-1,1.4752245E0,-1.1903808E-1,1.9614457E0,-4.4700402E-1,1.7181328E-1,2.6591425E0,3.6072877E-1,-1.2130066E-1,-9.134949E-2,1.0955466E0,-4.83287E-1,5.9044117E-1,6.0920966E-1,-5.056042E-1,1.3264078E0,-2.7421334E-1,-1.290775E-1,9.48583E-1,8.8471845E-2,-1.5363467E-1,2.1376519E-1,-1.3981777E-1],"categories":[],"categories_nodes":[],"categories_segments":[],"categories_sizes":[],"default_left":[0,0,0,0,0,0,0,0,0,0,0,0,0,0,0,0,0,0,0,0,0,0,0,0,0,0,0,0,0,0,0,0,0,0,0,0,0,0,0,0,0,0,0],"id":15,"left_children":[1,3,5,7,9,11,13,15,-1,-1,-1,17,19,21,23,-1,-1,25,27,-1,-1,-1,-1,29,31,-1,-1,-1,-1,-1,-1,33,35,37,39,-1,41,-1,-1,-1,-1,-1,-1],"loss_changes":[3.7386786E2,2.089014E2,1.3551656E2,3.6698692E1,8.616559E1,1.9442473E2,2.5843826E1,2.091894E0,0E0,0E0,0E0,1.553635E2,1.1936795E1,3.902865E1,1.9505157E1,0E0,0E0,6.635892E1,3.582512E0,0E0,0E0,0E0,0E0,1.4248946E1,1.2304218E1,0E0,0E0,0E0,0E0,0E0,0E0,7.8433075E0,3.844291E1,1.8980907E1,1.7325516E0,0E0,2.246278E0,0E0,0E0,0E0,0E0,0E0,0E0],"parents":[2147483647,0,0,1,1,2,2,3,3,4,4,5,5,6,6,7,7,11,11,12,12,13,13,14,14,17,17,18,18,23,23,24,24,31,31,32,32,33,33,34,34,36,36],"right_children":[2,4,6,8,10,12,14,16,-1,-1,-1,18,20,22,24,-1,-1,26,28,-1,-1,-1,-1,30,32,-1,-1,-1,-1,-1,-1,34,36,38,40,-1,42,-1,-1,-1,-1,-1,-1],"split_conditions":[-2.032578E-1,5.8003116E-1,-2.1064782E-1,-1.205567E-1,-1.4986923E-1,-9.738035E-2,-2.3677285E-1,-3.9337043E-2,1.2903113E0,2.7532547E0,-8.016195E-2,-1.0663118E-1,-1.01950355E-1,-1.3498084E-1,-2.1586204E-1,-1.3465406E-1,2.1376519E-1,-1.5892968E-1,-1.2893102E-1,5.910448E-1,-1.4845856E-1,1.4752245E0,-1.1903808E-1,-1.2229025E-1,2.182558E0,1.7181328E-1,2.6591425E0,3.6072877E-1,-1.2130066E-1,-9.134949E-2,1.0955466E0,-2.2310895E-1,-2.0924993E-1,2.569949E-1,-2.3707078E-1,1.3264078E0,4.8910716E-1,-1.290775E-1,9.48583E-1,8.8471845E-2,-1.5363467E-1,2.1376519E-1,-1.3981777E-1],"split_indices":[1215,192,666,409,583,1179,1060,1,0,0,0,41,765,528,802,0,0,103,31,0,0,0,0,47,1039,0,0,0,0,0,0,651,617,753,626,0,40,0,0,0,0,0,0],"split_type":[0,0,0,0,0,0,0,0,0,0,0,0,0,0,0,0,0,0,0,0,0,0,0,0,0,0,0,0,0,0,0,0,0,0,0,0,0,0,0,0,0,0,0],"sum_hessian":[3.708843E2,1.6140495E1,3.547438E2,8.417356E0,7.7231407E0,2.959091E1,3.251529E2,7.028926E0,1.3884298E0,6.681818E0,1.0413224E0,1.1280992E1,1.8309917E1,4.42562E0,3.2072726E2,5.987603E0,1.0413224E0,6.855372E0,4.42562E0,1.214876E0,1.7095041E1,1.3016529E0,3.123967E0,2.429752E0,3.1829752E2,1.3016529E0,5.553719E0,1.0413224E0,3.3842976E0,1.3884298E0,1.0413224E0,3.0805786E2,1.023967E1,5.640496E0,3.0241736E2,1.1280992E0,9.11157E0,4.5991735E0,1.0413224E0,2.0826447E0,3.0033472E2,1.0413224E0,8.070248E0],"tree_param":{"num_deleted":"0","num_feature":"1280","num_nodes":"43","size_leaf_vector":"1"}},{"base_weights":[-1.4178431E-2,-3.946255E-1,3.5495691E0,-4.998288E-1,9.873482E-1,7.226913E0,1.6115527E-1,2.118877E-1,-5.1559496E-1,4.2394524E0,-3.8298365E-1,8.3018863E-1,8.986441E0,-3.2813218E-1,9.969788E-1,6.546559E-1,-1.3284346E-1,-5.188329E-1,6.6801615E-2,6.4339623E0,-7.951809E-2,2.1376519E-1,-1.4783356E-1,-1.15536116E-1,8.0161947E-1,2.1376519E-1,2.8876376E0,-1.4778544E-1,3.2014927E-1,5.76699E-2,-1.5662776E-1,2.3615746E0,4.3249553E-1,6.6801615E-2,-9.134949E-2],"categories":[],"categories_nodes":[],"categories_segments":[],"categories_sizes":[],"default_left":[0,0,0,0,0,0,0,0,0,0,0,0,0,0,0,0,0,0,0,0,0,0,0,0,0,0,0,0,0,0,0,0,0,0,0],"id":16,"left_children":[1,3,5,7,9,11,13,15,17,19,21,23,25,27,-1,-1,-1,29,-1,31,33,-1,-1,-1,-1,-1,-1,-1,-1,-1,-1,-1,-1,-1,-1],"loss_changes":[5.0560794E2,4.94767E1,4.470479E2,3.6297913E0,1.0933376E2,1.8643616E2,3.1637674E1,1.0651605E1,8.4996796E-1,6.920767E1,2.5067973E0,1.181432E1,6.40376E1,4.658721E0,0E0,0E0,0E0,8.1004333E-1,0E0,2.3239777E1,3.009811E-1,0E0,0E0,0E0,0E0,0E0,0E0,0E0,0E0,0E0,0E0,0E0,0E0,0E0,0E0],"parents":[2147483647,0,0,1,1,2,2,3,3,4,4,5,5,6,6,7,7,8,8,9,9,10,10,11,11,12,12,13,13,17,17,19,19,20,20],"right_children":[2,4,6,8,10,12,14,16,18,20,22,24,26,28,-1,-1,-1,30,-1,32,34,-1,-1,-1,-1,-1,-1,-1,-1,-1,-1,-1,-1,-1,-1],"split_conditions":[1.4294245E0,5.4910094E-1,-1.1577842E-1,-1.1247241E-1,-1.6548792E-1,1.6380773E-1,8.95517E-1,-1.5063924E-1,5.850668E-1,-1.0328165E-1,-1.7644571E-1,8.7849045E-1,-8.9817934E-2,1.2156429E0,9.969788E-1,6.546559E-1,-1.3284346E-1,-2.3993759E-1,6.6801615E-2,-1.22400634E-1,-2.1355477E-1,2.1376519E-1,-1.4783356E-1,-1.15536116E-1,8.0161947E-1,2.1376519E-1,2.8876376E0,-1.4778544E-1,3.2014927E-1,5.76699E-2,-1.5662776E-1,2.3615746E0,4.3249553E-1,6.6801615E-2,-9.134949E-2],"split_indices":[1254,368,290,1,775,169,169,9,1149,917,60,234,303,276,0,0,0,480,0,668,0,0,0,0,0,0,0,0,0,0,0,0,0,0,0],"split_type":[0,0,0,0,0,0,0,0,0,0,0,0,0,0,0,0,0,0,0,0,0,0,0,0,0,0,0,0,0,0,0,0,0,0,0],"sum_hessian":[3.708843E2,3.3591324E2,3.4971073E1,3.127438E2,2.3169422E1,1.6227272E1,1.8743801E1,6.5082645E0,3.0623553E2,6.247934E0,1.6921488E1,3.8181818E0,1.2409091E1,1.7008265E1,1.7355372E0,1.0413224E0,5.4669423E0,3.051942E2,1.0413224E0,3.8181818E0,2.429752E0,1.0413224E0,1.5880165E1,2.7768595E0,1.0413224E0,1.0413224E0,1.1367768E1,1.5793388E1,1.214876E0,1.1280992E0,3.0406613E2,2.5165288E0,1.3016529E0,1.0413224E0,1.3884298E0],"tree_param":{"num_deleted":"0","num_feature":"1280","num_nodes":"35","size_leaf_vector":"1"}},{"base_weights":[-1.686744E-2,-3.5157573E-1,5.459792E0,1.6964207E0,-4.653029E-1,8.094108E0,-3.254438E-1,-2.1253126E-2,6.7729254E0,-4.8297504E-1,1.3313748E0,1.8299445E0,2.9556732E0,-1.3347854E-1,6.6801615E-2,-1.4586177E-1,9.48583E-1,2.4057112E0,3.6072877E-1,-5.127734E-1,2.92722E-1,-9.36561E-2,8.0161947E-1,1.3264078E0,-1.1013598E-1,4.31131E-1,-1.5664653E-1,1.0391003E0,-3.9130437E-1,3.6072877E-1,-9.781592E-2,-1.4211775E-1,6.6801615E-2],"categories":[],"categories_nodes":[],"categories_segments":[],"categories_sizes":[],"default_left":[0,0,0,0,0,0,0,0,0,0,0,0,0,0,0,0,0,0,0,0,0,0,0,0,0,0,0,0,0,0,0,0,0],"id":17,"left_children":[1,3,5,7,9,11,13,15,17,19,21,23,-1,-1,-1,-1,-1,-1,-1,25,27,-1,-1,-1,-1,29,-1,-1,31,-1,-1,-1,-1],"loss_changes":[6.8361444E2,8.2636055E1,3.299823E2,1.6322545E2,1.1238464E1,1.449397E2,6.0216635E-1,2.3695086E1,2.3200516E1,7.805298E0,8.58288E0,2.7079258E1,0E0,0E0,0E0,0E0,0E0,0E0,0E0,3.0526276E0,2.9310488E1,0E0,0E0,0E0,0E0,2.547118E0,0E0,0E0,6.874411E-1,0E0,0E0,0E0,0E0],"parents":[2147483647,0,0,1,1,2,2,3,3,4,4,5,5,6,6,7,7,8,8,9,9,10,10,11,11,19,19,20,20,25,25,28,28],"right_children":[2,4,6,8,10,12,14,16,18,20,22,24,-1,-1,-1,-1,-1,-1,-1,26,28,-1,-1,-1,-1,30,-1,-1,32,-1,-1,-1,-1],"split_conditions":[1.1080503E0,-1.955176E-1,4.7613937E-1,4.202562E-1,2.5354505E0,3.2377742E-2,2.5195786E-1,-5.349564E-2,2.1990241E-1,1.640749E0,-5.3207334E-2,-9.205214E-2,2.9556732E0,-1.3347854E-1,6.6801615E-2,-1.4586177E-1,9.48583E-1,2.4057112E0,3.6072877E-1,-2.2526218E-1,-1.4891022E-1,-9.36561E-2,8.0161947E-1,1.3264078E0,-1.1013598E-1,-2.0494919E-1,-1.5664653E-1,1.0391003E0,-9.41597E-2,3.6072877E-1,-9.781592E-2,-1.4211775E-1,6.6801615E-2],"split_indices":[306,374,164,1176,1039,953,5,559,302,1254,4,205,0,0,0,0,0,0,0,984,1215,0,0,0,0,0,0,0,6,0,0,0,0],"split_type":[0,0,0,0,0,0,0,0,0,0,0,0,0,0,0,0,0,0,0,0,0,0,0,0,0,0,0,0,0,0,0,0,0],"sum_hessian":[3.708843E2,3.5040497E2,2.047934E1,1.770248E1,3.3270248E2,1.3797521E1,6.681818E0,1.3971074E1,3.731405E0,3.3018594E2,2.5165288E0,3.4710743E0,1.0326447E1,5.640496E0,1.0413224E0,1.2929752E1,1.0413224E0,2.6900826E0,1.0413224E0,3.1829752E2,1.188843E1,1.4752066E0,1.0413224E0,1.1280992E0,2.3429751E0,2.6900826E0,3.1560745E2,1.3884298E0,1.05E1,1.0413224E0,1.6487603E0,9.458677E0,1.0413224E0],"tree_param":{"num_deleted":"0","num_feature":"1280","num_nodes":"33","size_leaf_vector":"1"}},{"base_weights":[4.497975E-2,-2.7946734E-1,5.009035E0,-4.1962117E-1,2.09733E0,8.128689E0,4.0216953E-1,8.010136E-1,-4.77974E-1,6.252164E0,-2.627067E-1,8.978617E0,-8.619403E-2,8.8731116E-1,-1.387627E-1,-3.1535837E-1,3.7012253E0,5.2261908E-2,-5.119793E-1,2.4427307E0,-9.580646E-2,-1.4452556E-1,3.6072877E-1,2.8662436E0,6.9317776E-1,2.1376519E-1,-1.429425E-1,-9.36561E-2,1.7531251E0,8.551977E-1,-3.8500002E-1,-5.1865166E-1,2.1204817E-1,2.1376519E-1,-1.4797494E-1,6.6801615E-2,-1.5660907E-1,2.1376519E-1,-9.134949E-2],"categories":[],"categories_nodes":[],"categories_segments":[],"categories_sizes":[],"default_left":[0,0,0,0,0,0,0,0,0,0,0,0,0,0,0,0,0,0,0,0,0,0,0,0,0,0,0,0,0,0,0,0,0,0,0,0,0,0,0],"id":18,"left_children":[1,3,5,7,9,11,13,15,17,19,21,23,-1,-1,-1,25,27,29,31,-1,-1,-1,-1,-1,-1,-1,-1,-1,-1,-1,33,35,37,-1,-1,-1,-1,-1,-1],"loss_changes":[6.003468E2,1.1747664E2,3.2538245E2,2.3984764E1,1.9439064E2,9.973633E1,2.4096136E1,5.1325035E1,5.740135E0,9.155591E1,4.9105134E0,2.5387207E1,0E0,0E0,0E0,2.3446646E0,3.9524193E1,2.5575209E1,1.5489578E0,0E0,0E0,0E0,0E0,0E0,0E0,0E0,0E0,0E0,0E0,0E0,2.51164E0,8.562012E-1,1.1036737E0,0E0,0E0,0E0,0E0,0E0,0E0],"parents":[2147483647,0,0,1,1,2,2,3,3,4,4,5,5,6,6,7,7,8,8,9,9,10,10,11,11,15,15,16,16,17,17,18,18,30,30,31,31,32,32],"right_children":[2,4,6,8,10,12,14,16,18,20,22,24,-1,-1,-1,26,28,30,32,-1,-1,-1,-1,-1,-1,-1,-1,-1,-1,-1,34,36,38,-1,-1,-1,-1,-1,-1],"split_conditions":[5.150695E-1,-3.3023305E-2,7.0986904E-2,-1.9225936E-1,-1.4024232E-1,-1.0625441E-1,-1.6773263E-1,2.8972465E-1,9.635474E-2,-1.9731352E-2,5.824738E-1,-5.7723045E-2,-8.619403E-2,8.8731116E-1,-1.387627E-1,-1.9046487E-1,2.3686032E-1,-2.0425536E-1,5.744109E-1,2.4427307E0,-9.580646E-2,-1.4452556E-1,3.6072877E-1,2.8662436E0,6.9317776E-1,2.1376519E-1,-1.429425E-1,-9.36561E-2,1.7531251E0,8.551977E-1,-2.281183E-1,-1.9726211E-1,-5.6216557E-2,2.1376519E-1,-1.4797494E-1,6.6801615E-2,-1.5660907E-1,2.1376519E-1,-9.134949E-2],"split_indices":[1120,911,1211,541,717,81,618,741,381,992,13,341,0,0,0,55,985,1014,57,0,0,0,0,0,0,0,0,0,0,0,365,827,4,0,0,0,0,0,0],"split_type":[0,0,0,0,0,0,0,0,0,0,0,0,0,0,0,0,0,0,0,0,0,0,0,0,0,0,0,0,0,0,0,0,0,0,0,0,0,0,0],"sum_hessian":[3.708843E2,3.4901654E2,2.186777E1,3.303595E2,1.8657024E1,1.2582644E1,9.285124E0,1.4491735E1,3.1586777E2,6.161157E0,1.2495868E1,1.1367768E1,1.214876E0,1.7355372E0,7.549587E0,1.1107438E1,3.3842976E0,1.9004133E1,2.9686365E2,4.5991735E0,1.5619835E0,1.1454546E1,1.0413224E0,1.0066115E1,1.3016529E0,1.0413224E0,1.0066115E1,1.4752066E0,1.9090909E0,1.822314E0,1.7181818E1,2.944339E2,2.429752E0,1.0413224E0,1.6140495E1,1.0413224E0,2.9339258E2,1.0413224E0,1.3884298E0],"tree_param":{"num_deleted":"0","num_feature":"1280","num_nodes":"39","size_leaf_vector":"1"}},{"base_weights":[-3.300149E-2,-2.7307448E-1,5.380903E0,1.6129458E0,-4.727528E-1,7.1451325E0,3.5199997E-1,3.5732582E-2,4.861029E0,-5.032211E-1,8.30851E-1,-9.781592E-2,8.40643E0,-1.1903808E-1,5.076923E-1,-4.553555E-1,1.1343751E0,6.413284E-1,7.686994E0,4.541284E-1,-5.1259667E-1,1.1328359E0,-2.9129887E-1,3.021544E-1,2.818522E0,6.6801615E-2,-1.497371E-1,8.0161947E-1,-1.2266547E-1,2.6570482E0,2.1376519E-1,-9.580646E-2,3.6072877E-1,-5.189066E-1,4.0665414E-2,6.6801615E-2,-1.2863569E-1,2.1290319E-2,-1.566347E-1,-1.113253E-1,2.1376519E-1],"categories":[],"categories_nodes":[],"categories_segments":[],"categories_sizes":[],"default_left":[0,0,0,0,0,0,0,0,0,0,0,0,0,0,0,0,0,0,0,0,0,0,0,0,0,0,0,0,0,0,0,0,0,0,0,0,0,0,0,0,0],"id":19,"left_children":[1,3,5,7,9,11,13,15,17,19,21,-1,23,-1,-1,25,-1,27,29,31,33,-1,35,-1,-1,-1,-1,-1,-1,-1,-1,-1,-1,37,39,-1,-1,-1,-1,-1,-1],"loss_changes":[4.8481934E2,1.3522491E2,1.380094E2,1.7610132E2,1.3272469E1,1.1274536E2,5.8554525E0,4.6178535E1,1.2910013E2,3.076889E0,2.677544E1,0E0,6.3871033E1,0E0,0E0,7.71739E-1,0E0,1.3033959E1,4.7868378E1,2.469588E0,1.1182022E0,0E0,5.585917E-1,0E0,0E0,0E0,0E0,0E0,0E0,0E0,0E0,0E0,0E0,6.253662E-1,1.5013328E0,0E0,0E0,0E0,0E0,0E0,0E0],"parents":[2147483647,0,0,1,1,2,2,3,3,4,4,5,5,6,6,7,7,8,8,9,9,10,10,12,12,15,15,17,17,18,18,19,19,20,20,22,22,33,33,34,34],"right_children":[2,4,6,8,10,12,14,16,18,20,22,-1,24,-1,-1,26,-1,28,30,32,34,-1,36,-1,-1,-1,-1,-1,-1,-1,-1,-1,-1,38,40,-1,-1,-1,-1,-1,-1],"split_conditions":[1.8473445E0,-1.5836844E-1,3.6117136E-1,9.9164987E-1,7.880155E-1,-1.5834184E-1,-1.5313347E-1,1.0289705E0,-1.4640133E-1,-2.2383906E-1,-2.0792076E-1,-9.781592E-2,-7.446573E-2,-1.1903808E-1,5.076923E-1,-2.3353976E-1,1.1343751E0,-1.7422096E-1,4.2168707E-2,-6.5993056E-2,2.1453491E-1,1.1328359E0,-1.0733511E-1,3.021544E-1,2.818522E0,6.6801615E-2,-1.497371E-1,8.0161947E-1,-1.2266547E-1,2.6570482E0,2.1376519E-1,-9.580646E-2,3.6072877E-1,-2.3945326E-1,-1.4195423E-1,6.6801615E-2,-1.2863569E-1,2.1290319E-2,-1.566347E-1,-1.113253E-1,2.1376519E-1],"split_indices":[789,81,925,435,194,936,6,1232,537,193,1205,0,1058,0,0,19,0,198,9,3,366,0,8,0,0,0,0,0,0,0,0,0,0,932,11,0,0,0,0,0,0],"split_type":[0,0,0,0,0,0,0,0,0,0,0,0,0,0,0,0,0,0,0,0,0,0,0,0,0,0,0,0,0,0,0,0,0,0,0,0,0,0,0,0,0],"sum_hessian":[3.708843E2,3.5604547E2,1.4838843E1,3.3409092E1,3.2263635E2,1.0673553E1,4.1652894E0,2.3169422E1,1.023967E1,3.1586777E2,6.768595E0,1.6487603E0,9.024794E0,3.123967E0,1.0413224E0,2.126033E1,1.9090909E0,4.5991735E0,5.640496E0,2.6033058E0,3.1326447E2,1.214876E0,5.553719E0,1.3016529E0,7.7231407E0,1.0413224E0,2.0219007E1,1.0413224E0,3.5578513E0,4.5991735E0,1.0413224E0,1.5619835E0,1.0413224E0,3.097934E2,3.4710743E0,1.0413224E0,4.512397E0,1.5619835E0,3.082314E2,2.429752E0,1.0413224E0],"tree_param":{"num_deleted":"0","num_feature":"1280","num_nodes":"41","size_leaf_vector":"1"}},{"base_weights":[-5.9891574E-2,-3.0856693E-1,6.9889503E0,2.8406816E0,-4.080327E-1,2.7534103E0,7.36098E-1,-1.17177114E-1,5.4503126E0,-4.572987E-1,9.739391E-1,-1.1013598E-1,6.546559E-1,2.1376519E-1,-1.2672001E-1,2.1810517E0,-9.134949E-2,-4.9767515E-1,5.523576E-1,4.585542E0,-3.7047818E-1,5.583756E-1,-5.067553E-1,-3.89274E-1,3.743155E0,1.9864078E-1,1.8662478E0,-1.394798E-1,6.6801615E-2,3.6072877E-1,-8.619403E-2,1.7181328E-1,-5.128862E-1,6.6801615E-2,-1.4186421E-1,1.7493205E0,-8.016195E-2,-1.5571348E-1,4.3326035E-2],"categories":[],"categories_nodes":[],"categories_segments":[],"categories_sizes":[],"default_left":[0,0,0,0,0,0,0,0,0,0,0,0,0,0,0,0,0,0,0,0,0,0,0,0,0,0,0,0,0,0,0,0,0,0,0,0,0,0,0],"id":20,"left_children":[1,3,5,7,9,-1,11,13,15,17,19,-1,-1,-1,-1,-1,-1,21,23,25,27,29,31,33,35,-1,-1,-1,-1,-1,-1,-1,37,-1,-1,-1,-1,-1,-1],"loss_changes":[6.5402264E2,1.1397944E2,1.6728546E2,8.6726944E1,2.4275986E1,0E0,7.7956147E0,1.8728175E0,6.448883E1,1.408036E1,6.175056E1,0E0,0E0,0E0,0E0,0E0,0E0,3.4104843E0,4.2006203E1,1.7885857E1,6.603118E-1,2.1190243E0,2.437317E0,6.8479E-1,2.8096573E1,0E0,0E0,0E0,0E0,0E0,0E0,0E0,1.3808746E0,0E0,0E0,0E0,0E0,0E0,0E0],"parents":[2147483647,0,0,1,1,2,2,3,3,4,4,6,6,7,7,8,8,9,9,10,10,17,17,18,18,19,19,20,20,21,21,22,22,23,23,24,24,32,32],"right_children":[2,4,6,8,10,-1,12,14,16,18,20,-1,-1,-1,-1,-1,-1,22,24,26,28,30,32,34,36,-1,-1,-1,-1,-1,-1,-1,38,-1,-1,-1,-1,-1,-1],"split_conditions":[6.62087E-2,1.307174E-1,7.8799926E-2,4.0380442E-1,1.0940906E0,2.7534103E0,-6.434402E-2,-7.434773E-2,-8.005329E-2,5.8910996E-2,-1.2688464E-1,-1.1013598E-1,6.546559E-1,2.1376519E-1,-1.2672001E-1,2.1810517E0,-9.134949E-2,-2.1410845E-1,-4.4349387E-2,-8.0693334E-2,1.3060912E-2,-8.79631E-2,-2.3400779E-1,-9.6055314E-2,-2.9268123E-2,1.9864078E-1,1.8662478E0,-1.394798E-1,6.6801615E-2,3.6072877E-1,-8.619403E-2,1.7181328E-1,9.0052015E-1,6.6801615E-2,-1.4186421E-1,1.7493205E0,-8.016195E-2,-1.5571348E-1,4.3326035E-2],"split_indices":[1003,890,49,1143,334,0,7,13,169,697,1049,0,0,0,0,0,0,310,601,278,6,3,959,4,49,0,0,0,0,0,0,0,215,0,0,0,0,0,0],"split_type":[0,0,0,0,0,0,0,0,0,0,0,0,0,0,0,0,0,0,0,0,0,0,0,0,0,0,0,0,0,0,0,0,0,0,0,0,0,0,0],"sum_hessian":[3.708843E2,3.5916943E2,1.1714876E1,1.0152893E1,3.4901654E2,8.330579E0,3.3842976E0,5.2066116E0,4.946281E0,3.3764877E2,1.1367768E1,2.3429751E0,1.0413224E0,1.0413224E0,4.1652894E0,3.5578513E0,1.3884298E0,3.251529E2,1.2495868E1,2.429752E0,8.938017E0,2.2561984E0,3.228967E2,1.0326447E1,2.1694214E0,1.1280992E0,1.3016529E0,7.896694E0,1.0413224E0,1.0413224E0,1.214876E0,1.3016529E0,3.2159503E2,1.0413224E0,9.285124E0,1.1280992E0,1.0413224E0,3.1881818E2,2.7768595E0],"tree_param":{"num_deleted":"0","num_feature":"1280","num_nodes":"39","size_leaf_vector":"1"}},{"base_weights":[-1.686744E-2,-2.4123593E-1,4.6407905E0,4.3584905E0,-3.035249E-1,1.0942679E-1,8.345326E0,2.1321716E0,-9.9697895E-2,-3.737408E-1,2.2417061E0,6.546559E-1,-1.366864E-1,2.8976827E0,-8.619403E-2,1.9754661E0,-4.017252E-1,-5.984768E-2,2.1984828E0,1.3894737E0,-1.0756193E-1,5.792323E-1,-4.512792E-1,3.6072877E-1,-1.331652E-1,-4.183586E-1,4.7181706E0,1.2866971E0,-4.6934164E-1,6.6801615E-2,-1.4542374E-1,1.8100746E0,3.3961165E-1,8.0161947E-1,-9.580646E-2,-1.4702408E-1,5.3430986E-2],"categories":[],"categories_nodes":[],"categories_segments":[],"categories_sizes":[],"default_left":[0,0,0,0,0,0,0,0,0,0,0,0,0,0,0,0,0,0,0,0,0,0,0,0,0,0,0,0,0,0,0,0,0,0,0,0,0],"id":21,"left_children":[1,3,5,7,9,11,13,-1,-1,15,17,-1,-1,-1,-1,19,21,23,-1,-1,-1,25,27,-1,-1,29,31,33,35,-1,-1,-1,-1,-1,-1,-1,-1],"loss_changes":[3.8975043E2,1.0324784E2,2.8681744E2,6.448694E1,6.373244E1,1.121087E1,1.0956763E2,0E0,0E0,2.3364819E1,1.1271949E2,0E0,0E0,0E0,0E0,2.7764622E1,1.6794952E1,4.2155123E0,0E0,0E0,0E0,7.131323E1,1.0785316E1,0E0,0E0,7.2289443E-1,8.939369E0,8.870593E0,4.4071503E0,0E0,0E0,0E0,0E0,0E0,0E0,0E0,0E0],"parents":[2147483647,0,0,1,1,2,2,3,3,4,4,5,5,6,6,9,9,10,10,15,15,16,16,17,17,21,21,22,22,25,25,26,26,27,27,28,28],"right_children":[2,4,6,8,10,12,14,-1,-1,16,18,-1,-1,-1,-1,20,22,24,-1,-1,-1,26,28,-1,-1,30,32,34,36,-1,-1,-1,-1,-1,-1,-1,-1],"split_conditions":[1.193025E-1,-2.1151675E-1,-4.719806E-2,1.2719487E-1,1.3330712E0,-2.0622995E-1,-6.43801E-2,2.1321716E0,-9.9697895E-2,-1.4622228E-1,2.7574626E-1,6.546559E-1,-1.366864E-1,2.8976827E0,-8.619403E-2,-4.2977057E-2,-2.1212177E-1,-1.8228064E-1,2.1984828E0,1.3894737E0,-1.0756193E-1,2.1386024E-1,-2.2833638E-1,3.6072877E-1,-1.331652E-1,-1.1591238E-1,-3.2918246E-3,-9.2734665E-2,6.8065536E-1,6.6801615E-2,-1.4542374E-1,1.8100746E0,3.3961165E-1,8.0161947E-1,-9.580646E-2,-1.4702408E-1,5.3430986E-2],"split_indices":[144,1238,1,209,276,84,882,0,0,850,1239,0,0,0,0,177,177,86,0,0,0,1193,6,0,0,3,106,7,741,0,0,0,0,0,0,0,0],"split_type":[0,0,0,0,0,0,0,0,0,0,0,0,0,0,0,0,0,0,0,0,0,0,0,0,0,0,0,0,0,0,0,0,0,0,0,0,0],"sum_hessian":[3.708843E2,3.547438E2,1.6140495E1,3.8181818E0,3.5092563E2,7.7231407E0,8.417356E0,2.0826447E0,1.7355372E0,3.4233472E2,8.590909E0,1.0413224E0,6.681818E0,7.2024794E0,1.214876E0,3.210744E0,3.3912396E2,6.5950413E0,1.9958677E0,1.0413224E0,2.1694214E0,1.5793388E1,3.2333057E2,1.0413224E0,5.553719E0,1.3450414E1,2.3429751E0,2.6033058E0,3.2072726E2,1.0413224E0,1.2409091E1,1.214876E0,1.1280992E0,1.0413224E0,1.5619835E0,3.1100827E2,9.719008E0],"tree_param":{"num_deleted":"0","num_feature":"1280","num_nodes":"37","size_leaf_vector":"1"}},{"base_weights":[1.249508E-3,-3.0767885E-1,9.180554E-1,2.9253247E-1,-4.7251475E-1,1.1142002E0,-1.9028157E-1,-3.6242843E-1,6.543272E-1,-4.87718E-1,2.0003703E-1,1.2293642E0,-1.2729801E-1,-1.5293917E-1,6.031728E-1,-1.4734194E-1,2.3426872E-1,-3.0748597E-1,9.2181814E-1,-4.997368E-1,2.2436632E-1,2.0600064E0,1.0593641E0,2.931575E-1,-7.9682015E-2,1.5351453E-1,-1.5000008E-1,-1.1345718E-1,1.0779678E0,-1.0781134E-1,-1.5436395E-1,1.8823658E-1,-9.101285E-2,6.5466285E-1,2.736878E0,-1.0375754E-1,1.1189448E0,1.1752955E0,-9.142128E-2,-1.4222446E-1,3.703516E-1,2.7874926E-2,2.4247772E-1,9.152324E-1,1.7405996E-1,-8.4513076E-2,1.1548164E0,1.711512E-2,3.7184426E-1,6.7455965E-1,3.1769994E-1],"categories":[],"categories_nodes":[],"categories_segments":[],"categories_sizes":[],"default_left":[0,0,0,0,0,0,0,0,0,0,0,0,0,0,0,0,0,0,0,0,0,0,0,0,0,0,0,0,0,0,0,0,0,0,0,0,0,0,0,0,0,0,0,0,0,0,0,0,0,0,0],"id":22,"left_children":[1,3,5,7,9,11,13,15,17,19,-1,21,-1,-1,23,-1,-1,25,27,29,31,33,35,-1,-1,-1,-1,-1,37,39,-1,-1,-1,41,43,-1,45,47,-1,-1,-1,-1,-1,-1,-1,-1,49,-1,-1,-1,-1],"loss_changes":[9.1989334E1,2.417326E1,1.800753E1,1.2786592E1,3.6330986E0,1.2870529E1,3.6444697E0,3.2514164E0,9.152141E0,1.7299805E0,0E0,7.010231E0,0E0,0E0,1.6362522E0,0E0,0E0,1.5570592E0,5.933382E0,1.0253334E0,1.0046371E0,7.721573E0,5.083721E0,0E0,0E0,0E0,0E0,0E0,3.663536E0,4.540658E0,0E0,0E0,0E0,3.188163E-1,2.5866203E0,0E0,3.0411072E0,1.5910378E0,0E0,0E0,0E0,0E0,0E0,0E0,0E0,0E0,3.1623383E0,0E0,0E0,0E0,0E0],"parents":[2147483647,0,0,1,1,2,2,3,3,4,4,5,5,6,6,7,7,8,8,9,9,11,11,14,14,17,17,18,18,19,19,20,20,21,21,22,22,28,28,29,29,33,33,34,34,36,36,37,37,46,46],"right_children":[2,4,6,8,10,12,14,16,18,20,-1,22,-1,-1,24,-1,-1,26,28,30,32,34,36,-1,-1,-1,-1,-1,38,40,-1,-1,-1,42,44,-1,46,48,-1,-1,-1,-1,-1,-1,-1,-1,50,-1,-1,-1,-1],"split_conditions":[-8.046086E-2,-1.3023192E-1,-7.1035035E-2,4.1547775E-1,7.361514E-1,1.677582E-2,9.981761E-1,8.525936E-2,-1.2704712E-1,3.705619E-1,2.0003703E-1,-1.8660313E-2,-1.2729801E-1,-1.5293917E-1,-1.5022656E-1,-1.4734194E-1,2.3426872E-1,-1.6945535E-1,-1.519481E-1,-2.0328857E-1,-1.3707659E-1,-1.4298025E-1,4.5841164E-3,2.931575E-1,-7.9682015E-2,1.5351453E-1,-1.5000008E-1,-1.1345718E-1,-1.3329883E-1,4.3252516E-1,-1.5436395E-1,1.8823658E-1,-9.101285E-2,1.1515545E0,-1.02957E-1,-1.0375754E-1,-1.23238444E-1,-2.0412572E-1,-9.142128E-2,-1.4222446E-1,3.703516E-1,2.7874926E-2,2.4247772E-1,9.152324E-1,1.7405996E-1,-8.4513076E-2,-2.0899406E-1,1.711512E-2,3.7184426E-1,6.7455965E-1,3.1769994E-1],"split_indices":[1013,781,539,1211,861,109,301,7,1105,972,0,1275,0,0,409,0,0,627,319,1190,5,258,326,0,0,0,0,0,463,993,0,0,0,171,717,0,1009,305,0,0,0,0,0,0,0,0,575,0,0,0,0],"split_type":[0,0,0,0,0,0,0,0,0,0,0,0,0,0,0,0,0,0,0,0,0,0,0,0,0,0,0,0,0,0,0,0,0,0,0,0,0,0,0,0,0,0,0,0,0,0,0,0,0,0,0],"sum_hessian":[3.2279245E2,2.4193428E2,8.0858154E1,5.1959873E1,1.8997441E2,6.869565E1,1.2162509E1,1.848839E1,3.347148E1,1.880371E2,1.9373081E0,6.4098595E1,4.5970507E0,8.9257145E0,3.2367942E0,1.7130344E1,1.3580449E0,7.250707E0,2.6220776E1,1.8520927E2,2.8278244E0,9.000981E0,5.5097614E1,2.1754522E0,1.061342E0,1.0641962E0,6.186511E0,2.6592731E0,2.3561502E1,7.045149E0,1.7816412E2,1.4961358E0,1.3316884E0,3.565454E0,5.4355273E0,2.0456526E0,5.3051964E1,2.2152224E1,1.409278E0,6.0430384E0,1.0021104E0,1.1101712E0,2.455283E0,4.3830233E0,1.0525042E0,1.1536303E0,5.189833E1,1.305011E0,2.0847214E1,2.3706875E0,4.9527645E1],"tree_param":{"num_deleted":"0","num_feature":"1280","num_nodes":"51","size_leaf_vector":"1"}},{"base_weights":[3.1764347E-2,6.244489E-1,-4.325231E-1,9.336731E-1,-4.518641E-1,-4.8737362E-1,5.245038E-1,1.1498215E0,-2.4659821E-1,1.5344538E-1,-1.5026236E-1,2.8107446E-1,-5.0882477E-1,1.1363971E0,-1.2234001E-1,2.3063307E-1,1.3709142E0,-1.4560935E-1,2.4428448E-1,-1.1598962E-1,3.9810148E-1,6.0813647E-2,-1.54357E-1,9.998449E-2,3.9158797E-1,-3.4460226E-1,9.484771E-1,2.8850944E0,1.2146633E0,1.5167233E-1,-1.4383815E-1,1.6863819E-3,3.4195405E-1,1.0525201E-1,1.1144443E0,1.3196894E0,3.2590996E-2,3.5402003E-1,7.391978E-1,-1.482747E-1,3.1288248E-1],"categories":[],"categories_nodes":[],"categories_segments":[],"categories_sizes":[],"default_left":[0,0,0,0,0,0,0,0,0,0,0,0,0,0,0,0,0,0,0,0,0,0,0,0,0,0,0,0,0,0,0,0,0,0,0,0,0,0,0,0,0],"id":23,"left_children":[1,3,5,7,9,11,13,15,17,-1,-1,19,21,23,-1,25,27,-1,-1,-1,-1,-1,-1,-1,-1,29,31,33,35,-1,-1,-1,-1,-1,-1,37,39,-1,-1,-1,-1],"loss_changes":[8.773384E1,4.7025993E1,9.642479E0,2.8116959E1,1.7635055E0,2.9394531E0,6.2678823E0,1.8460075E1,4.8814707E0,0E0,0E0,4.180345E0,7.7492905E-1,4.3405342E-1,0E0,8.220497E0,1.4068375E1,0E0,0E0,0E0,0E0,0E0,0E0,0E0,0E0,1.5432307E0,1.576086E0,1.1776558E1,8.529968E0,0E0,0E0,0E0,0E0,0E0,0E0,7.220848E0,4.060591E0,0E0,0E0,0E0,0E0],"parents":[2147483647,0,0,1,1,2,2,3,3,4,4,5,5,6,6,7,7,8,8,11,11,12,12,13,13,15,15,16,16,25,25,26,26,27,27,28,28,35,35,36,36],"right_children":[2,4,6,8,10,12,14,16,18,-1,-1,20,22,24,-1,26,28,-1,-1,-1,-1,-1,-1,-1,-1,30,32,34,36,-1,-1,-1,-1,-1,-1,38,40,-1,-1,-1,-1],"split_conditions":[6.1354804E-1,2.5870648E-1,1.4456728E0,-1.5081561E-2,-2.0548317E-1,-1.8660721E-1,-1.7703445E-1,-1.6047592E-1,-5.319966E-2,1.5344538E-1,-1.5026236E-1,1.3317418E-1,-2.164967E-1,-1.1331925E-1,-1.2234001E-1,-1.3294654E-1,-1.4663245E-1,-1.4560935E-1,2.4428448E-1,-1.1598962E-1,3.9810148E-1,6.0813647E-2,-1.54357E-1,9.998449E-2,3.9158797E-1,-2.2566058E-1,-1.4229573E-1,2.8422305E-1,-6.942078E-2,1.5167233E-1,-1.4383815E-1,1.6863819E-3,3.4195405E-1,1.0525201E-1,1.1144443E0,-1.2616934E-1,2.0690201E-1,3.5402003E-1,7.391978E-1,-1.482747E-1,3.1288248E-1],"split_indices":[179,538,304,553,470,1184,758,646,476,0,0,656,113,246,0,319,1087,0,0,0,0,0,0,0,0,291,944,1275,882,0,0,0,0,0,0,638,677,0,0,0,0],"split_type":[0,0,0,0,0,0,0,0,0,0,0,0,0,0,0,0,0,0,0,0,0,0,0,0,0,0,0,0,0,0,0,0,0,0,0,0,0,0,0,0,0],"sum_hessian":[3.1684662E2,1.390271E2,1.7781952E2,1.08101974E2,3.092512E1,1.6864465E2,9.174867E0,9.139094E1,1.671104E1,1.0403211E0,2.9884798E1,4.2511683E0,1.6439348E2,5.4071274E0,3.767739E0,1.811623E1,7.3274704E1,1.4083774E1,2.6272674E0,2.979467E0,1.2717013E0,1.0314542E0,1.6336203E2,1.4561769E0,3.9509504E0,1.0345745E1,7.7704844E0,5.220449E0,6.805426E1,1.0400574E0,9.305687E0,1.4847363E0,6.285748E0,1.6385589E0,3.5818903E0,6.2394173E1,5.660087E0,5.7419376E1,4.9747963E0,4.055954E0,1.6041334E0],"tree_param":{"num_deleted":"0","num_feature":"1280","num_nodes":"41","size_leaf_vector":"1"}},{"base_weights":[7.5797506E-2,-3.1959417E-1,6.5324515E-1,-4.1513112E-1,1.0927038E0,-1.0917702E-1,1.180019E0,4.7597224E-1,-4.424974E-1,-1.2439014E-1,1.8633263E0,7.3599285E-1,-4.0998554E-1,1.4055648E0,-1.7094904E-1,-4.681165E-1,6.901504E-1,9.616777E-1,2.3841335E-1,1.1614218E0,-1.2182885E-1,4.0082645E-1,-1.5354478E-1,1.521465E0,-2.586073E-1,3.625454E-1,-1.4134286E-1,3.8833895E-1,-4.8491096E-1,5.299841E-1,-1.0378138E-1,4.077647E-1,-8.2333714E-2,2.634698E-1,-1.0884656E-1,1.5930158E0,6.831577E-2,4.4104144E-2,-1.17873885E-1,-1.01182066E-1,3.7020403E-1,-5.021441E-1,2.557896E-1,2.2408307E0,1.3650105E0,-1.033082E-1,1.9114684E-1,4.8983257E-2,-1.5425532E-1,-1.1127943E-1,3.6845145E-1,1.0720191E0,4.0043166E-1,3.7709183E-1,7.9932886E-1],"categories":[],"categories_nodes":[],"categories_segments":[],"categories_sizes":[],"default_left":[0,0,0,0,0,0,0,0,0,0,0,0,0,0,0,0,0,0,0,0,0,0,0,0,0,0,0,0,0,0,0,0,0,0,0,0,0,0,0,0,0,0,0,0,0,0,0,0,0,0,0,0,0,0,0],"id":24,"left_children":[1,3,5,7,9,11,13,-1,15,-1,17,19,21,23,25,27,29,-1,-1,31,-1,33,-1,35,37,-1,-1,39,41,-1,-1,-1,-1,-1,-1,43,45,-1,-1,-1,-1,47,49,51,53,-1,-1,-1,-1,-1,-1,-1,-1,-1,-1],"loss_changes":[7.238449E1,2.586168E1,5.186165E1,1.0403654E1,1.4951779E1,1.3915364E1,2.3477554E1,0E0,5.415531E0,0E0,9.299288E0,7.4748383E0,3.518828E0,1.301915E1,5.4565496E0,2.6653404E0,5.391218E0,0E0,0E0,3.4291306E0,0E0,2.1556623E0,0E0,6.269226E0,3.365114E-1,0E0,0E0,2.7892883E0,2.2900505E0,0E0,0E0,0E0,0E0,0E0,0E0,5.5700836E0,1.1404382E0,0E0,0E0,0E0,0E0,1.4125633E0,3.2057734E0,1.1711037E1,3.0762634E0,0E0,0E0,0E0,0E0,0E0,0E0,0E0,0E0,0E0,0E0],"parents":[2147483647,0,0,1,1,2,2,3,3,4,4,5,5,6,6,8,8,10,10,11,11,12,12,13,13,14,14,15,15,16,16,19,19,21,21,23,23,24,24,27,27,28,28,35,35,36,36,41,41,42,42,43,43,44,44],"right_children":[2,4,6,8,10,12,14,-1,16,-1,18,20,22,24,26,28,30,-1,-1,32,-1,34,-1,36,38,-1,-1,40,42,-1,-1,-1,-1,-1,-1,44,46,-1,-1,-1,-1,48,50,52,54,-1,-1,-1,-1,-1,-1,-1,-1,-1,-1],"split_conditions":[2.5030306E-1,2.941642E-1,-2.9708069E-2,-2.5271627E-1,5.2426055E-2,-4.541333E-2,2.706552E-1,4.7597224E-1,4.480061E-1,-1.2439014E-1,-1.23075224E-1,3.9101794E-1,2.3470268E-1,2.4792215E-1,-1.8340619E-1,-2.1170875E-1,-1.655058E-1,9.616777E-1,2.3841335E-1,-8.830645E-2,-1.2182885E-1,-7.705642E-2,-1.5354478E-1,-5.4610748E-2,-1.6125818E-1,3.625454E-1,-1.4134286E-1,-1.7901483E-1,3.899602E-2,5.299841E-1,-1.0378138E-1,4.077647E-1,-8.2333714E-2,2.634698E-1,-1.0884656E-1,-1.8321942E-1,1.0631469E-2,4.4104144E-2,-1.17873885E-1,-1.01182066E-1,3.7020403E-1,-1.8712059E-1,1.9161129E0,-1.4124966E-1,7.758013E-2,-1.033082E-1,1.9114684E-1,4.8983257E-2,-1.5425532E-1,-1.1127943E-1,3.6845145E-1,1.0720191E0,4.0043166E-1,3.7709183E-1,7.9932886E-1],"split_indices":[175,415,630,771,604,414,310,0,666,0,153,921,56,488,1001,1190,482,0,0,1188,0,247,0,619,635,0,0,1064,327,0,0,0,0,0,0,575,549,0,0,0,0,782,1072,1135,186,0,0,0,0,0,0,0,0,0,0],"split_type":[0,0,0,0,0,0,0,0,0,0,0,0,0,0,0,0,0,0,0,0,0,0,0,0,0,0,0,0,0,0,0,0,0,0,0,0,0,0,0,0,0,0,0,0,0,0,0,0,0,0,0,0,0,0,0],"sum_hessian":[3.1511926E2,1.873102E2,1.2780905E2,1.7610349E2,1.12067175E1,5.254753E1,7.526153E1,1.606692E0,1.744968E2,3.9474518E0,7.259266E0,1.3413483E1,3.913405E1,6.445952E1,1.0802005E1,1.7121092E2,3.285871E0,2.3312573E0,4.9280086E0,9.760691E0,3.6527917E0,4.0388627E0,3.5095184E1,6.034274E1,4.11678E0,1.3898345E0,9.41217E0,2.867283E0,1.6834364E2,1.2657334E0,2.0201375E0,8.625845E0,1.1348453E0,2.3928733E0,1.6459892E0,5.7419254E1,2.9234872E0,1.0005033E0,3.1162767E0,1.866743E0,1.00054E0,1.6483075E2,3.5128832E0,1.2649938E1,4.4769314E1,1.9230208E0,1.0004663E0,2.7062316E0,1.6212453E2,2.51223E0,1.0006533E0,3.928415E0,8.721522E0,4.3149097E1,1.620216E0],"tree_param":{"num_deleted":"0","num_feature":"1280","num_nodes":"55","size_leaf_vector":"1"}},{"base_weights":[-2.5991127E-3,3.965033E-1,-4.606243E-1,8.3736193E-1,-2.6807088E-1,5.201207E-1,-4.8503417E-1,-1.017564E-2,1.2071683E0,1.1013665E0,-4.2008066E-1,-9.191709E-2,3.3609474E-1,2.1233313E-1,-4.9906012E-1,-4.120759E-1,8.305856E-1,-7.990297E-2,1.3733886E0,1.5287585E0,-9.1470525E-2,5.352234E-1,-4.761643E-1,1.4621198E-1,-1.5396728E-1,2.2231665E-1,-1.509353E-1,1.2004069E0,-1.08155444E-1,2.672224E-1,-1.3949235E-1,1.1442851E0,2.1986158E0,5.7558364E-1,2.269889E-1,-8.953884E-2,3.3648768E-1,1.8150233E-1,-1.5280968E-1,3.0199712E-2,1.3577794E0,1.2205355E0,-1.17245056E-1,2.6948025E0,2.7494824E-1,2.1422662E-1,-9.403338E-2,6.368011E-1,2.620071E-1,3.8150814E-1,-8.9924976E-2,9.9803644E-1,2.1482159E-1,1.90598E-1,-8.2495265E-2],"categories":[],"categories_nodes":[],"categories_segments":[],"categories_sizes":[],"default_left":[0,0,0,0,0,0,0,0,0,0,0,0,0,0,0,0,0,0,0,0,0,0,0,0,0,0,0,0,0,0,0,0,0,0,0,0,0,0,0,0,0,0,0,0,0,0,0,0,0,0,0,0,0,0,0],"id":25,"left_children":[1,3,5,7,9,11,13,15,17,19,21,-1,-1,-1,23,25,27,29,31,33,-1,35,37,-1,-1,-1,-1,39,-1,-1,-1,41,43,-1,-1,-1,-1,45,-1,-1,47,49,-1,51,53,-1,-1,-1,-1,-1,-1,-1,-1,-1,-1],"loss_changes":[5.653534E1,4.8646408E1,3.699728E0,3.1230103E1,1.4341171E1,2.3174343E0,2.7126236E0,1.0901349E1,1.4946999E1,4.6355543E0,3.5087223E0,0E0,0E0,0E0,2.205822E0,2.6626089E0,5.030709E0,3.7322206E0,9.106964E0,1.9986057E-1,0E0,2.2113404E0,1.3565874E0,0E0,0E0,0E0,0E0,1.2817965E0,0E0,0E0,0E0,6.353348E0,1.0973881E1,0E0,0E0,0E0,0E0,1.1515778E0,0E0,0E0,7.731838E-1,4.1198044E0,0E0,9.6766815E0,8.9415824E-1,0E0,0E0,0E0,0E0,0E0,0E0,0E0,0E0,0E0,0E0],"parents":[2147483647,0,0,1,1,2,2,3,3,4,4,5,5,6,6,7,7,8,8,9,9,10,10,14,14,15,15,16,16,17,17,18,18,19,19,21,21,22,22,27,27,31,31,32,32,37,37,40,40,41,41,43,43,44,44],"right_children":[2,4,6,8,10,12,14,16,18,20,22,-1,-1,-1,24,26,28,30,32,34,-1,36,38,-1,-1,-1,-1,40,-1,-1,-1,42,44,-1,-1,-1,-1,46,-1,-1,48,50,-1,52,54,-1,-1,-1,-1,-1,-1,-1,-1,-1,-1],"split_conditions":[-1.3410163E-1,-1.3731222E-1,-2.3877616E-1,-5.6292433E-2,-1.7838186E-1,-1.030544E-1,-1.9734702E-1,-1.06335014E-1,6.8773784E-2,-1.7614047E-1,-1.9611472E-1,-9.191709E-2,3.3609474E-1,2.1233313E-1,-2.2359708E-1,-1.8156227E-1,-1.8855119E-1,-2.1973725E-1,-8.30789E-2,-5.464799E-2,-9.1470525E-2,-1.202516E-1,-2.2538415E-1,1.4621198E-1,-1.5396728E-1,2.2231665E-1,-1.509353E-1,-1.5330514E-1,-1.08155444E-1,2.672224E-1,-1.3949235E-1,9.083838E-2,-1.9686103E-1,5.7558364E-1,2.269889E-1,-8.953884E-2,3.3648768E-1,-1.4377296E-1,-1.5280968E-1,3.0199712E-2,-6.1692905E-2,6.098335E-1,-1.17245056E-1,-1.1501004E-1,-2.0561747E-1,2.1422662E-1,-9.403338E-2,6.368011E-1,2.620071E-1,3.8150814E-1,-8.9924976E-2,9.9803644E-1,2.1482159E-1,1.90598E-1,-8.2495265E-2],"split_indices":[488,652,949,531,820,85,70,355,489,805,97,0,0,0,375,146,984,95,133,1,0,668,341,0,0,0,0,721,0,0,0,496,211,0,0,0,0,891,0,0,531,302,0,1235,2,0,0,0,0,0,0,0,0,0,0],"split_type":[0,0,0,0,0,0,0,0,0,0,0,0,0,0,0,0,0,0,0,0,0,0,0,0,0,0,0,0,0,0,0,0,0,0,0,0,0,0,0,0,0,0,0,0,0,0,0,0,0,0,0,0,0,0,0],"sum_hessian":[3.0727692E2,1.6427202E2,1.4300488E2,9.860224E1,6.5669785E1,2.979658E0,1.4002522E2,3.0248943E1,6.8353294E1,5.9371724E0,5.9732613E1,1.4594324E0,1.5202256E0,1.0525334E0,1.3897269E2,2.0810837E1,9.4381075E0,7.877308E0,6.047599E1,4.4865274E0,1.4506449E0,2.8385584E0,5.6894054E1,1.4943259E0,1.3747836E2,1.0003773E0,1.981046E1,7.196029E0,2.2420785E0,1.8644445E0,6.012863E0,4.920272E1,1.1273272E1,1.9946035E0,2.491924E0,1.3748976E0,1.4636608E0,2.5195136E0,5.437454E1,1.1061013E0,6.0899277E0,4.7069626E1,2.1330924E0,8.643037E0,2.630234E0,1.000341E0,1.5191725E0,1.0500563E0,5.0398717E0,4.5695473E1,1.3741537E0,6.0344305E0,2.6086066E0,1.4951563E0,1.1350778E0],"tree_param":{"num_deleted":"0","num_feature":"1280","num_nodes":"55","size_leaf_vector":"1"}},{"base_weights":[6.272657E-2,-4.470381E-1,6.933279E-1,9.025694E-1,-4.981983E-1,-4.3196723E-1,1.0307884E0,3.883852E-1,-9.400791E-2,3.5841495E-1,-1.5447742E-1,-1.5092137E-1,2.482294E-1,-2.174656E-1,1.1942464E0,3.6824653E-1,-1.4496553E-1,-1.3117564E-1,1.2911316E0,1.3575782E0,-1.2228136E-1,2.2745824E0,1.2002714E0,9.860754E-1,3.7972844E-1,3.3055317E-1,7.40347E-1],"categories":[],"categories_nodes":[],"categories_segments":[],"categories_sizes":[],"default_left":[0,0,0,0,0,0,0,0,0,0,0,0,0,0,0,0,0,0,0,0,0,0,0,0,0,0,0],"id":26,"left_children":[1,3,5,7,9,11,13,-1,-1,-1,-1,-1,-1,15,17,-1,-1,-1,19,21,-1,23,25,-1,-1,-1,-1],"loss_changes":[1.0655064E2,1.311039E1,5.6696503E1,3.7677383E0,5.636074E0,3.5395699E0,2.3571213E1,0E0,0E0,0E0,0E0,0E0,0E0,5.9978676E0,1.6557327E1,0E0,0E0,0E0,1.1362061E1,1.059642E1,0E0,8.513649E0,7.3833466E0,0E0,0E0,0E0,0E0],"parents":[2147483647,0,0,1,1,2,2,3,3,4,4,5,5,6,6,13,13,14,14,18,18,19,19,21,21,22,22],"right_children":[2,4,6,8,10,12,14,-1,-1,-1,-1,-1,-1,16,18,-1,-1,-1,20,22,-1,24,26,-1,-1,-1,-1],"split_conditions":[6.4755607E-1,-1.8308628E-1,3.8561195E-1,-1.8559371E-1,-1.8870683E-1,2.2774274E0,-2.9568372E-2,3.883852E-1,-9.400791E-2,3.5841495E-1,-1.5447742E-1,-1.5092137E-1,2.482294E-1,-1.2918056E-2,-1.511884E-2,3.6824653E-1,-1.4496553E-1,-1.3117564E-1,1.6830985E-1,-1.7117271E-1,-1.2228136E-1,-1.3768412E-1,1.4065656E-1,9.860754E-1,3.7972844E-1,3.3055317E-1,7.40347E-1],"split_indices":[119,703,426,144,939,590,1036,0,0,0,0,0,0,56,390,0,0,0,591,480,0,666,287,0,0,0,0],"split_type":[0,0,0,0,0,0,0,0,0,0,0,0,0,0,0,0,0,0,0,0,0,0,0,0,0,0,0],"sum_hessian":[3.2949603E2,1.823662E2,1.4712985E2,6.0527377E0,1.7631346E2,3.3878532E1,1.1325132E2,4.528057E0,1.5246804E0,1.0359514E0,1.7527751E2,3.2636467E1,1.242066E0,1.3074776E1,1.00176544E2,1.4689385E0,1.1605838E1,5.418505E0,9.475804E1,9.1384346E1,3.373695E0,1.1410194E1,7.997415E1,4.568051E0,6.842144E0,7.5946075E1,4.028074E0],"tree_param":{"num_deleted":"0","num_feature":"1280","num_nodes":"27","size_leaf_vector":"1"}},{"base_weights":[-4.874436E-2,-4.9201387E-1,8.374083E-1,-1.5410662E-1,3.92069E-1,1.1721646E0,-3.0395016E-1,2.7334505E-1,-1.0416829E-1,1.9430093E0,1.0700611E0,2.3756315E-1,-4.3312347E-1,1.8119234E-1,6.828115E-1,1.1096975E0,-1.3887955E-1,-1.4860472E-1,1.3402371E-1,6.034525E-1,1.020975E0,-8.701599E-2,3.0487848E-2,4.7811165E-1,2.8357914E-1],"categories":[],"categories_nodes":[],"categories_segments":[],"categories_sizes":[],"default_left":[0,0,0,0,0,0,0,0,0,0,0,0,0,0,0,0,0,0,0,0,0,0,0,0,0],"id":27,"left_children":[1,3,5,-1,7,9,11,-1,-1,13,15,-1,17,-1,-1,19,21,-1,-1,-1,23,-1,-1,-1,-1],"loss_changes":[1.25159096E2,4.2699356E0,4.0956177E1,0E0,2.4838052E0,4.4037857E0,3.8665102E0,0E0,0E0,2.3749466E0,3.7460709E0,0E0,1.4758334E0,0E0,0E0,3.7624512E0,1.4831029E-1,0E0,0E0,0E0,1.4513397E0,0E0,0E0,0E0,0E0],"parents":[2147483647,0,0,1,1,2,2,4,4,5,5,6,6,9,9,10,10,12,12,15,15,16,16,20,20],"right_children":[2,4,6,-1,8,10,12,-1,-1,14,16,-1,18,-1,-1,20,22,-1,-1,-1,24,-1,-1,-1,-1],"split_conditions":[2.5226304E-1,8.943402E-2,-1.7362801E-2,-1.5410662E-1,-1.9013411E-1,-1.0205764E-1,-1.9395861E-1,2.7334505E-1,-1.0416829E-1,-1.255822E-1,-1.2258062E-1,2.3756315E-1,9.372256E-2,1.8119234E-1,6.828115E-1,1.287598E-1,2.624007E-1,-1.4860472E-1,1.3402371E-1,6.034525E-1,3.018646E-1,-8.701599E-2,3.0487848E-2,4.7811165E-1,2.8357914E-1],"split_indices":[775,36,507,0,112,1243,717,0,0,573,324,0,125,0,0,1152,83,0,0,0,1005,0,0,0,0],"split_type":[0,0,0,0,0,0,0,0,0,0,0,0,0,0,0,0,0,0,0,0,0,0,0,0,0],"sum_hessian":[3.1658063E2,2.1131955E2,1.0526107E2,2.066716E2,4.647951E0,8.136888E1,2.3892185E1,2.5941029E0,2.0538483E0,7.408391E0,7.396049E1,1.97839E0,2.1913795E1,2.0359344E0,5.3724566E0,7.1692085E1,2.2684088E0,2.0874538E1,1.0392568E0,4.4803224E0,6.721176E1,1.2663869E0,1.0020219E0,5.506577E0,6.170518E1],"tree_param":{"num_deleted":"0","num_feature":"1280","num_nodes":"25","size_leaf_vector":"1"}},{"base_weights":[-5.899218E-4,-4.873015E-1,9.5965713E-1,-5.1033807E-1,2.401702E-1,-1.742078E-2,1.1281083E0,-1.5415615E-1,3.0912945E-2,6.55764E-1,-1.7567223E-1,-9.812886E-2,1.2156593E0,-8.895027E-2,2.6508492E-1,-1.2743409E-1,2.094955E-1,1.1358545E0,8.707052E-1,-9.6961714E-2,1.1682487E0,-9.448033E-2,1.2004284E0,7.707393E-1,3.3512598E-1],"categories":[],"categories_nodes":[],"categories_segments":[],"categories_sizes":[],"default_left":[0,0,0,0,0,0,0,0,0,0,0,0,0,0,0,0,0,0,0,0,0,0,0,0,0],"id":28,"left_children":[1,3,5,7,-1,9,11,-1,-1,13,-1,15,17,-1,-1,-1,-1,19,-1,-1,21,-1,23,-1,-1],"loss_changes":[1.5290288E2,6.8498955E0,1.8132233E1,5.142288E-1,0E0,6.9500017E0,1.0198036E1,0E0,0E0,2.0692048E0,0E0,2.1649618E0,8.508026E0,0E0,0E0,0E0,0E0,4.41304E0,0E0,0E0,4.374901E0,0E0,6.503319E0,0E0,0E0],"parents":[2147483647,0,0,1,1,2,2,3,3,5,5,6,6,9,9,11,11,12,12,17,17,20,20,22,22],"right_children":[2,4,6,8,-1,10,12,-1,-1,14,-1,16,18,-1,-1,-1,-1,20,-1,-1,22,-1,24,-1,-1],"split_conditions":[4.3425626E-1,-2.4772644E-2,-1.3741715E-1,1.7346323E0,2.401702E-1,-1.2682754E-1,2.5240448E-1,-1.5415615E-1,3.0912945E-2,-1.6439162E-1,-1.7567223E-1,9.612223E-1,1.1886984E0,-8.895027E-2,2.6508492E-1,-1.2743409E-1,2.094955E-1,-7.9350576E-2,8.707052E-1,-9.6961714E-2,1.5576487E0,-9.448033E-2,9.074849E-2,7.707393E-1,3.3512598E-1],"split_indices":[154,51,983,1021,0,931,749,0,0,738,0,18,1039,0,0,0,0,1010,0,0,179,0,834,0,0],"split_type":[0,0,0,0,0,0,0,0,0,0,0,0,0,0,0,0,0,0,0,0,0,0,0,0,0],"sum_hessian":[3.2515997E2,2.1611319E2,1.09046776E2,2.1290854E2,3.20464E0,1.616727E1,9.28795E1,2.1185652E2,1.0520226E0,7.3290896E0,8.8381815E0,6.1814494E0,8.669805E1,1.3569009E0,5.972189E0,4.7145147E0,1.4669347E0,8.437913E1,2.318925E0,1.63772E0,8.274141E1,1.5704741E0,8.117094E1,2.9469779E0,7.822395E1],"tree_param":{"num_deleted":"0","num_feature":"1280","num_nodes":"25","size_leaf_vector":"1"}},{"base_weights":[-4.6832543E-2,-4.9965724E-1,8.127522E-1,-1.5410218E-1,1.9883956E-1,9.527393E-1,-1.5940009E-1,1.056033E0,8.7572664E-2,8.9532554E-1,9.87917E-1,-3.9094326E-1,8.227023E-1,1.047695E0,-8.281464E-4,-1.4438707E-1,3.5947505E-2,8.988686E-2,2.8663933E-1,1.074576E0,-9.254567E-2,2.1645886E-1,-1.5321654E-1,7.680475E-1,3.0729163E-1],"categories":[],"categories_nodes":[],"categories_segments":[],"categories_sizes":[],"default_left":[0,0,0,0,0,0,0,0,0,0,0,0,0,0,0,0,0,0,0,0,0,0,0,0,0],"id":29,"left_children":[1,3,5,-1,-1,7,-1,9,11,-1,13,15,17,19,21,-1,-1,-1,-1,23,-1,-1,-1,-1,-1],"loss_changes":[1.2789884E2,3.8460388E0,2.1841736E1,0E0,0E0,9.117203E0,0E0,9.132713E0,4.5717597E0,0E0,5.3398666E0,4.266678E-1,6.690812E-2,3.436821E0,2.6333685E0,0E0,0E0,0E0,0E0,3.63208E0,0E0,0E0,0E0,0E0,0E0],"parents":[2147483647,0,0,1,1,2,2,5,5,7,7,8,8,10,10,11,11,12,12,13,13,14,14,19,19],"right_children":[2,4,6,-1,-1,8,-1,10,12,-1,14,16,18,20,22,-1,-1,-1,-1,24,-1,-1,-1,-1,-1],"split_conditions":[4.3425626E-1,3.5032744E0,2.8560007E-1,-1.5410218E-1,1.9883956E-1,-1.7497549E-2,-1.5940009E-1,-2.0356725E-1,1.0683223E0,8.9532554E-1,-8.655771E-2,9.8033E-2,1.757685E-2,-6.294813E-2,-1.175387E-1,-1.4438707E-1,3.5947505E-2,8.988686E-2,2.8663933E-1,-1.3391863E-1,-9.254567E-2,2.1645886E-1,-1.5321654E-1,7.680475E-1,3.0729163E-1],"split_indices":[154,173,945,0,0,1149,0,1013,888,0,477,424,16,199,78,0,0,0,0,17,0,0,0,0,0],"split_type":[0,0,0,0,0,0,0,0,0,0,0,0,0,0,0,0,0,0,0,0,0,0,0,0,0],"sum_hessian":[3.2654175E2,2.1414828E2,1.1239346E2,2.1214836E2,1.9999322E0,1.02055504E2,1.033796E1,9.097342E1,1.1082085E1,1.6430962E0,8.933032E1,6.996239E0,4.085845E0,8.418124E1,5.149092E0,5.9937515E0,1.002488E0,1.4863809E0,2.599464E0,8.27487E1,1.432527E0,1.9588974E0,3.190195E0,1.0742905E0,8.1674416E1],"tree_param":{"num_deleted":"0","num_feature":"1280","num_nodes":"25","size_leaf_vector":"1"}},{"base_weights":[3.0599613E-2,-3.255873E-1,7.7518475E-1,-4.2595965E-1,9.4655895E-1,-2.8771368E-1,1.1039512E0,-4.6693859E-1,6.638604E-1,1.47294E0,-1.24511555E-1,-4.6255368E-1,3.2791328E-1,1.3275006E0,2.2366078E-1,7.379693E-1,-4.9184486E-1,-1.12710856E-1,1.2940025E0,5.613983E-1,2.3934697E-1,3.627884E-2,-1.4848597E-1,2.8149476E0,1.1498859E0,-1.3641101E-1,2.4481566E-1,-1.04697146E-1,5.825913E-1,1.4349912E-1,-5.02348E-1,1.5549478E-1,4.593294E-1,1.2451218E0,8.1632066E-1,-1.4742954E-1,1.2950943E0,-1.5434608E-1,2.2874916E-1,3.042562E-1,9.207842E-2,-1.2961324E-1,2.1830578E-1,1.3849409E0,-3.5711482E-2,-8.571388E-2,1.7962742E-1,5.451721E-1,3.089999E-1,-1.06199905E-1,1.4333105E-1],"categories":[],"categories_nodes":[],"categories_segments":[],"categories_sizes":[],"default_left":[0,0,0,0,0,0,0,0,0,0,0,0,0,0,0,0,0,0,0,0,0,0,0,0,0,0,0,0,0,0,0,0,0,0,0,0,0,0,0,0,0,0,0,0,0,0,0,0,0,0,0],"id":30,"left_children":[1,3,5,7,9,11,13,15,17,19,-1,21,-1,23,25,27,29,-1,31,-1,-1,-1,-1,33,35,-1,-1,-1,-1,-1,37,-1,-1,-1,39,41,43,-1,45,-1,-1,-1,-1,47,49,-1,-1,-1,-1,-1,-1],"loss_changes":[8.3491554E1,2.7601482E1,3.59101E1,9.157867E0,1.1998155E1,6.5059443E0,1.5052376E1,6.110592E0,5.459807E0,1.6478405E0,0E0,4.902048E-1,0E0,1.3143059E1,7.202207E0,6.2772903E0,2.1585045E0,0E0,1.17162704E-1,0E0,0E0,0E0,0E0,1.2421009E1,1.0943153E1,0E0,0E0,0E0,0E0,0E0,1.7747612E0,0E0,0E0,0E0,5.3311348E-2,1.9690473E0,6.199295E0,0E0,8.8334644E-1,0E0,0E0,0E0,0E0,5.525009E0,8.6008376E-1,0E0,0E0,0E0,0E0,0E0,0E0],"parents":[2147483647,0,0,1,1,2,2,3,3,4,4,5,5,6,6,7,7,8,8,9,9,11,11,13,13,14,14,15,15,16,16,18,18,23,23,24,24,30,30,34,34,35,35,36,36,38,38,43,43,44,44],"right_children":[2,4,6,8,10,12,14,16,18,20,-1,22,-1,24,26,28,30,-1,32,-1,-1,-1,-1,34,36,-1,-1,-1,-1,-1,38,-1,-1,-1,40,42,44,-1,46,-1,-1,-1,-1,48,50,-1,-1,-1,-1,-1,-1],"split_conditions":[-2.4957338E-2,3.7553966E-1,-6.939818E-2,2.644098E-1,-7.1502455E-2,3.4227362E-1,6.2913275E-1,-1.5839376E-1,-8.819952E-2,5.8573995E-2,-1.24511555E-1,-1.712937E-1,3.2791328E-1,-1.1164819E-1,3.587073E-1,6.6260856E-1,-2.406954E-1,-1.12710856E-1,-1.2404856E-1,5.613983E-1,2.3934697E-1,3.627884E-2,-1.4848597E-1,-9.961955E-2,-8.227306E-2,-1.3641101E-1,2.4481566E-1,-1.04697146E-1,5.825913E-1,1.4349912E-1,7.948832E-1,1.5549478E-1,4.593294E-1,1.2451218E0,-1.9223256E-1,7.846843E-1,-2.6724365E-2,-1.5434608E-1,3.5850182E-1,3.042562E-1,9.207842E-2,-1.2961324E-1,2.1830578E-1,6.624383E-2,6.952125E-1,-8.571388E-2,1.7962742E-1,5.451721E-1,3.089999E-1,-1.06199905E-1,1.4333105E-1],"split_indices":[1188,425,270,1191,190,222,122,313,683,388,0,344,0,1015,1198,187,198,0,9,0,0,0,0,186,411,0,0,0,0,0,1028,0,0,0,2,1123,747,0,93,0,0,0,0,388,22,0,0,0,0,0,0],"split_type":[0,0,0,0,0,0,0,0,0,0,0,0,0,0,0,0,0,0,0,0,0,0,0,0,0,0,0,0,0,0,0,0,0,0,0,0,0,0,0,0,0,0,0,0,0,0,0,0,0,0,0],"sum_hessian":[3.1285956E2,2.1200536E2,1.008542E2,1.9711792E2,1.4887437E1,2.3855265E1,7.699894E1,1.905254E2,6.5925126E0,1.0677746E1,4.209692E0,2.1764332E1,2.0909324E0,6.0999992E1,1.5998943E1,3.2787163E0,1.8724669E2,2.6403816E0,3.9521308E0,5.6008277E0,5.0769176E0,1.0012044E0,2.0763128E1,4.9230366E0,5.6076958E1,7.5666203E0,8.432323E0,2.0963213E0,1.1823951E0,1.5283842E0,1.857183E2,1.6710835E0,2.2810473E0,2.3057404E0,2.6172962E0,5.6433177E0,5.043364E1,1.829765E2,2.7418067E0,1.1713338E0,1.4459625E0,4.640413E0,1.0029049E0,4.7205948E1,3.2276907E0,1.2423118E0,1.4994949E0,1.942613E1,2.7779818E1,2.1843085E0,1.0433823E0],"tree_param":{"num_deleted":"0","num_feature":"1280","num_nodes":"51","size_leaf_vector":"1"}},{"base_weights":[-4.3993715E-2,-4.146541E-1,8.3267194E-1,-4.5832446E-1,1.1213377E0,1.0888282E0,-2.2256257E-1,4.5939872E-1,-4.994841E-1,8.5892427E-1,-1.1961268E-1,-1.3541853E-1,1.204099E0,6.524663E-1,-1.5748005E-1,2.5112996E0,-1.3417284E-1,2.0892785E-1,-1.5415266E-1,-1.2975624E-1,1.8341453E-1,1.8783543E0,1.0722867E0,2.832062E-1,-8.010782E-2,1.9544986E-1,9.644266E-1,2.18086E0,-8.128889E-2,2.7976167E-1,1.1261452E0,6.999323E-1,1.8364283E-1,2.1095227E-1,-1.179069E-1,6.307386E-1,1.0609702E0,2.920464E-1,5.496612E-1],"categories":[],"categories_nodes":[],"categories_segments":[],"categories_sizes":[],"default_left":[0,0,0,0,0,0,0,0,0,0,0,0,0,0,0,0,0,0,0,0,0,0,0,0,0,0,0,0,0,0,0,0,0,0,0,0,0,0,0],"id":31,"left_children":[1,3,5,7,9,11,13,15,17,-1,-1,19,21,23,-1,25,-1,-1,-1,-1,-1,27,29,-1,-1,-1,-1,31,-1,33,35,-1,-1,-1,-1,-1,37,-1,-1],"loss_changes":[1.0123884E2,1.5196754E1,2.5272598E1,8.296009E0,1.7930979E1,1.0702179E1,5.347893E0,1.9145279E1,3.8755798E0,0E0,0E0,1.8898096E0,4.061058E0,1.6740456E0,0E0,1.9873219E0,0E0,0E0,0E0,0E0,0E0,6.99374E0,2.225029E0,0E0,0E0,0E0,0E0,6.5997696E-1,0E0,1.7341043E0,1.2939911E0,0E0,0E0,0E0,0E0,0E0,1.8559189E0,0E0,0E0],"parents":[2147483647,0,0,1,1,2,2,3,3,4,4,5,5,6,6,7,7,8,8,11,11,12,12,13,13,15,15,21,21,22,22,27,27,29,29,30,30,36,36],"right_children":[2,4,6,8,10,12,14,16,18,-1,-1,20,22,24,-1,26,-1,-1,-1,-1,-1,28,30,-1,-1,-1,-1,32,-1,34,36,-1,-1,-1,-1,-1,38,-1,-1],"split_conditions":[2.4744353E0,5.770877E-1,4.31125E-2,-1.0997561E-1,-2.0646481E-1,-1.2642825E-1,-1.1971689E-1,-1.4235605E-1,-1.9888613E-1,8.5892427E-1,-1.1961268E-1,-1.9245459E-2,1.7315011E0,9.160732E-2,-1.5748005E-1,1.1687964E0,-1.3417284E-1,2.0892785E-1,-1.5415266E-1,-1.2975624E-1,1.8341453E-1,-1.2627208E-1,-1.4851156E-1,2.832062E-1,-8.010782E-2,1.9544986E-1,9.644266E-1,-5.839886E-2,-8.128889E-2,-5.3669997E-2,2.5363188E0,6.999323E-1,1.8364283E-1,2.1095227E-1,-1.179069E-1,6.307386E-1,-4.0032975E-2,2.920464E-1,5.496612E-1],"split_indices":[830,226,223,461,407,551,735,1046,543,0,0,880,56,462,0,378,0,0,0,0,0,425,1069,0,0,0,0,952,0,118,830,0,0,0,0,0,827,0,0],"split_type":[0,0,0,0,0,0,0,0,0,0,0,0,0,0,0,0,0,0,0,0,0,0,0,0,0,0,0,0,0,0,0,0,0,0,0,0,0,0,0],"sum_hessian":[3.0949405E2,2.1789397E2,9.160008E1,2.1255241E2,5.3415484E0,7.368206E1,1.791802E1,8.68755E0,2.0386487E2,2.0774999E0,3.2640483E0,6.325597E0,6.735647E1,4.3042245E0,1.3613796E1,2.119907E0,6.567642E0,1.8549902E0,2.0200987E2,4.8263483E0,1.4992486E0,8.847731E0,5.8508736E1,3.2477472E0,1.0564775E0,1.1103905E0,1.0095164E0,7.743233E0,1.1044977E0,4.1172953E0,5.439144E1,6.614054E0,1.1291788E0,2.4992435E0,1.6180518E0,1.4476157E0,5.2943825E1,4.958192E1,3.3619049E0],"tree_param":{"num_deleted":"0","num_feature":"1280","num_nodes":"39","size_leaf_vector":"1"}},{"base_weights":[5.41911E-2,7.9921407E-1,-4.099292E-1,1.1263168E0,-2.4487533E-1,-4.3885207E-1,1.0882816E0,1.2820694E0,-2.8234816E-1,4.7729668E-1,-3.744619E-1,-4.817695E-1,4.0473568E-1,5.1603013E-1,-8.17411E-2,5.8623224E-1,1.5529563E0,-1.4147043E-1,2.0873141E-1,2.1747704E-1,-4.6366328E-1,5.322168E-1,-5.023104E-1,1.1170714E0,-3.066619E-1,9.3364704E-1,-3.458154E-1,1.765787E0,4.2649356E-1,6.33596E-2,-1.4944687E-1,-9.336022E-2,3.4609503E-1,-1.540304E-1,-2.1092273E-2,3.535945E-2,4.0559092E-1,5.017804E-2,-1.3356064E-1,-1.4602712E-1,1.307913E0,-1.3967338E-1,6.347013E-2,2.358176E0,1.3936993E0,-1.2730686E-1,1.0989552E0,2.21988E-1,-1.1762782E-1,-1.3643944E-1,1.9005921E-1,-1.0877208E-4,4.4107538E-1,1.5803467E-1,7.7023363E-1,-1.17513664E-1,4.4785306E-1,3.9756563E-2,3.789849E-1],"categories":[],"categories_nodes":[],"categories_segments":[],"categories_sizes":[],"default_left":[0,0,0,0,0,0,0,0,0,0,0,0,0,0,0,0,0,0,0,0,0,0,0,0,0,0,0,0,0,0,0,0,0,0,0,0,0,0,0,0,0,0,0,0,0,0,0,0,0,0,0,0,0,0,0,0,0,0,0],"id":32,"left_children":[1,3,5,7,9,11,13,15,17,-1,19,21,23,-1,-1,25,27,-1,-1,-1,29,31,33,35,37,39,41,43,45,-1,-1,-1,-1,-1,47,-1,-1,-1,-1,49,51,-1,-1,53,55,-1,57,-1,-1,-1,-1,-1,-1,-1,-1,-1,-1,-1,-1],"loss_changes":[1.076408E2,4.107595E1,8.792507E0,2.035942E1,7.5711274E0,7.036381E0,3.8402338E0,1.4593323E1,2.1592522E0,0E0,3.1012576E0,4.0220947E0,5.253813E0,0E0,0E0,8.30601E0,1.3295258E1,0E0,0E0,0E0,7.2650576E-1,2.4895563E0,9.3779755E-1,1.0278215E0,4.443509E-1,7.557435E0,5.940833E-1,7.5066376E0,6.548573E0,0E0,0E0,0E0,0E0,0E0,1.7150927E0,0E0,0E0,0E0,0E0,1.6342034E0,2.8969517E0,0E0,0E0,5.333725E0,6.3413544E0,0E0,8.197794E-1,0E0,0E0,0E0,0E0,0E0,0E0,0E0,0E0,0E0,0E0,0E0,0E0],"parents":[2147483647,0,0,1,1,2,2,3,3,4,4,5,5,6,6,7,7,8,8,10,10,11,11,12,12,15,15,16,16,20,20,21,21,22,22,23,23,24,24,25,25,26,26,27,27,28,28,34,34,39,39,40,40,43,43,44,44,46,46],"right_children":[2,4,6,8,10,12,14,16,18,-1,20,22,24,-1,-1,26,28,-1,-1,-1,30,32,34,36,38,40,42,44,46,-1,-1,-1,-1,-1,48,-1,-1,-1,-1,50,52,-1,-1,54,56,-1,58,-1,-1,-1,-1,-1,-1,-1,-1,-1,-1,-1,-1],"split_conditions":[6.878487E-2,4.3969366E-1,1.2835152E-1,4.8559126E-1,-1.3453634E-1,7.558444E-1,-2.0511991E-1,-6.655406E-2,9.9219775E-1,4.7729668E-1,-1.748972E-1,-2.3151799E-1,-1.4200068E-1,5.1603013E-1,-8.17411E-2,4.2861494E-1,1.6050978E-1,-1.4147043E-1,2.0873141E-1,2.1747704E-1,-1.781908E-1,5.291338E-1,3.0713767E-1,-1.5033866E-1,1.9185707E-2,-7.292524E-2,-7.124489E-2,-8.680351E-3,1.0371418E-1,6.33596E-2,-1.4944687E-1,-9.336022E-2,3.4609503E-1,-1.540304E-1,-1.3522157E-1,3.535945E-2,4.0559092E-1,5.017804E-2,-1.3356064E-1,6.0735717E-2,-1.7620571E-1,-1.3967338E-1,6.347013E-2,-1.3187452E-1,-1.4481352E-1,-1.2730686E-1,-1.509407E-1,2.21988E-1,-1.1762782E-1,-1.3643944E-1,1.9005921E-1,-1.0877208E-4,4.4107538E-1,1.5803467E-1,7.7023363E-1,-1.17513664E-1,4.4785306E-1,3.9756563E-2,3.789849E-1],"split_indices":[322,39,940,538,1211,488,134,773,1263,0,1077,530,942,0,0,695,1226,0,0,0,38,41,1032,1056,764,8,262,514,342,0,0,0,0,0,637,0,0,0,0,38,222,0,0,1193,1251,0,79,0,0,0,0,0,0,0,0,0,0,0,0],"split_type":[0,0,0,0,0,0,0,0,0,0,0,0,0,0,0,0,0,0,0,0,0,0,0,0,0,0,0,0,0,0,0,0,0,0,0,0,0,0,0,0,0,0,0,0,0,0,0,0,0,0,0,0,0,0,0,0,0,0,0],"sum_hessian":[3.093508E2,1.18464775E2,1.9088602E2,9.014462E1,2.8320156E1,1.8796446E2,2.9215624E0,8.1250786E1,8.893837E0,1.1236656E0,2.7196491E1,1.7927287E2,8.6915865E0,1.814828E0,1.1067343E0,2.3653994E1,5.759679E1,7.886127E0,1.0077103E0,1.5061946E0,2.5690296E1,3.0649242E0,1.7620795E2,4.057993E0,4.633593E0,1.722993E1,6.424063E0,4.796657E1,9.630217E0,1.0001034E0,2.4690193E1,1.5120164E0,1.552908E0,1.7216118E2,4.0467715E0,1.0582399E0,2.9997532E0,1.0012358E0,3.6323571E0,4.5922213E0,1.263771E1,5.4234543E0,1.0006089E0,1.6445894E1,3.1520678E1,4.414105E0,5.2161117E0,1.000302E0,3.0464697E0,3.587759E0,1.0044621E0,1.5051937E0,1.1132516E1,2.0472121E0,1.4398683E1,1.5030217E0,3.0017656E1,1.020553E0,4.1955585E0],"tree_param":{"num_deleted":"0","num_feature":"1280","num_nodes":"59","size_leaf_vector":"1"}},{"base_weights":[2.716033E-2,-4.3964535E-1,9.0188247E-1,-4.852618E-1,8.656655E-1,-4.1469836E-1,1.0905539E0,4.5115945E-1,-5.048404E-1,6.1311305E-1,-1.2139558E-1,7.2631754E-2,-1.4424272E-1,-1.145969E-1,1.227041E0,-1.1225504E-1,5.193114E-1,6.131204E-2,-5.0985014E-1,2.3244861E-1,-1.4023021E-1,2.2252016E0,1.0524085E0,-1.540664E-1,3.0885382E-2,8.953998E-1,2.9288993E0,1.1186048E0,-1.1866575E-1,3.4013003E-1,1.0998927E-2,3.2389128E-1,1.1323168E0,1.8295782E0,9.618112E-1,1.7142075E-1,9.436388E-1,6.338838E-4,3.094378E-1],"categories":[],"categories_nodes":[],"categories_segments":[],"categories_sizes":[],"default_left":[0,0,0,0,0,0,0,0,0,0,0,0,0,0,0,0,0,0,0,0,0,0,0,0,0,0,0,0,0,0,0,0,0,0,0,0,0,0,0],"id":33,"left_children":[1,3,5,7,9,11,13,15,17,-1,-1,-1,-1,19,21,-1,-1,-1,23,-1,-1,25,27,-1,-1,29,31,33,-1,-1,-1,-1,-1,35,37,-1,-1,-1,-1],"loss_changes":[1.2994684E2,1.2778046E1,2.795713E1,3.9161034E0,1.1852117E1,7.505083E-1,1.6116348E1,5.5577188E0,8.0602264E-1,0E0,0E0,0E0,0E0,3.7499573E0,1.28806305E1,0E0,0E0,0E0,4.9879456E-1,0E0,0E0,8.7062E0,7.74839E0,0E0,0E0,1.1108031E0,7.614792E0,6.394966E0,0E0,0E0,0E0,0E0,0E0,1.8250744E1,4.144821E0,0E0,0E0,0E0,0E0],"parents":[2147483647,0,0,1,1,2,2,3,3,4,4,5,5,6,6,7,7,8,8,13,13,14,14,18,18,21,21,22,22,25,25,26,26,27,27,33,33,34,34],"right_children":[2,4,6,8,10,12,14,16,18,-1,-1,-1,-1,20,22,-1,-1,-1,24,-1,-1,26,28,-1,-1,30,32,34,-1,-1,-1,-1,-1,36,38,-1,-1,-1,-1],"split_conditions":[3.8444707E-1,1.1126184E0,-1.194519E-1,-1.1974099E-1,-1.07060805E-1,-1.5895207E-1,1.3639103E-1,-5.4574993E-2,-1.4459474E-1,6.1311305E-1,-1.2139558E-1,7.2631754E-2,-1.4424272E-1,-2.3393181E-1,-1.467134E-1,-1.1225504E-1,5.193114E-1,6.131204E-2,1.299755E0,2.3244861E-1,-1.4023021E-1,6.160728E-1,2.1853021E-1,-1.540664E-1,3.0885382E-2,-1.7353013E-1,3.7742448E-1,-1.6493167E-1,-1.1866575E-1,3.4013003E-1,1.0998927E-2,3.2389128E-1,1.1323168E0,-1.5895963E-1,-9.388511E-2,1.7142075E-1,9.436388E-1,6.338838E-4,3.094378E-1],"split_indices":[341,850,1190,1045,426,1225,927,552,1226,0,0,0,0,382,1122,0,0,0,657,0,0,265,377,0,0,391,310,955,0,0,0,0,0,689,384,0,0,0,0],"split_type":[0,0,0,0,0,0,0,0,0,0,0,0,0,0,0,0,0,0,0,0,0,0,0,0,0,0,0,0,0,0,0,0,0,0,0,0,0,0,0],"sum_hessian":[3.1627237E2,2.0654474E2,1.0972762E2,2.0017741E2,6.367322E0,1.3603327E1,9.612429E1,3.6481235E0,1.965293E2,2.9877641E0,3.3795578E0,1.000574E0,1.2602754E1,9.795204E0,8.632909E1,2.6481066E0,1.0000172E0,1.0993774E0,1.9542992E2,2.4424138E0,7.35279E0,1.1106218E1,7.522287E1,1.9441658E2,1.0133404E0,4.6297126E0,6.4765058E0,7.215178E1,3.0710926E0,3.3731308E0,1.2565818E0,2.7464309E0,3.730075E0,1.1109148E1,6.104263E1,6.412298E0,4.69685E0,4.200012E0,5.6842617E1],"tree_param":{"num_deleted":"0","num_feature":"1280","num_nodes":"39","size_leaf_vector":"1"}},{"base_weights":[-4.2259404E-3,-4.69726E-1,8.2206786E-1,-4.8887187E-1,4.6025738E-1,-1.470237E-1,1.0910902E0,-4.984747E-1,1.9493541E-1,1.1642842E0,-1.3122864E-1,1.2432196E-1,-5.0935423E-1,2.0139942E0,1.020528E0,-1.5428814E-1,7.208428E-2,-9.598673E-2,2.3857203E0,-1.1973096E-1,1.0524766E0,4.7760418E-1,1.0675188E0,1.0017091E0,7.0214814E-1,3.077522E-1,-8.5205264E-2],"categories":[],"categories_nodes":[],"categories_segments":[],"categories_sizes":[],"default_left":[0,0,0,0,0,0,0,0,0,0,0,0,0,0,0,0,0,0,0,0,0,0,0,0,0,0,0],"id":34,"left_children":[1,3,5,7,-1,-1,9,11,-1,13,-1,-1,15,17,19,-1,-1,-1,21,-1,23,-1,-1,25,-1,-1,-1],"loss_changes":[1.2407525E2,8.666187E0,4.156791E1,2.5669098E0,0E0,0E0,1.1336288E1,2.2369995E0,0E0,9.258972E0,0E0,0E0,8.716736E-1,1.1500465E1,4.105133E0,0E0,0E0,0E0,4.3814125E0,0E0,2.8694305E0,0E0,0E0,2.725731E0,0E0,0E0,0E0],"parents":[2147483647,0,0,1,1,2,2,3,3,6,6,7,7,9,9,12,12,13,13,14,14,18,18,20,20,23,23],"right_children":[2,4,6,8,-1,-1,10,12,-1,14,-1,-1,16,18,20,-1,-1,-1,22,-1,24,-1,-1,26,-1,-1,-1],"split_conditions":[-1.7063592E-2,2.1077344E0,-9.929834E-2,5.5448335E-1,4.6025738E-1,-1.470237E-1,8.9661133E-1,-2.2636539E-1,1.9493541E-1,5.6454474E-1,-1.3122864E-1,1.2432196E-1,8.735728E-1,-1.4530957E-1,-2.009955E-1,-1.5428814E-1,7.208428E-2,-9.598673E-2,-1.945181E-1,-1.1973096E-1,-4.570901E-2,4.7760418E-1,1.0675188E0,-7.012518E-2,7.0214814E-1,3.077522E-1,-8.5205264E-2],"split_indices":[1278,462,832,1042,0,0,926,204,0,1063,0,0,683,816,450,0,0,0,549,0,206,0,0,1196,0,0,0],"split_type":[0,0,0,0,0,0,0,0,0,0,0,0,0,0,0,0,0,0,0,0,0,0,0,0,0,0,0],"sum_hessian":[3.2057126E2,2.053289E2,1.1524236E2,2.041346E2,1.1943042E0,1.9467691E1,9.5774666E1,2.0298495E2,1.1496432E0,9.162543E1,4.149245E0,1.9538076E0,2.0103114E2,1.1375819E1,8.02496E1,2.0002705E2,1.0040966E0,1.5820295E0,9.79379E0,1.5133255E0,7.873628E1,7.2466226E0,2.5471673E0,7.746085E1,1.2754283E0,7.623219E1,1.2286582E0],"tree_param":{"num_deleted":"0","num_feature":"1280","num_nodes":"27","size_leaf_vector":"1"}},{"base_weights":[-3.871974E-2,-4.873145E-1,9.033315E-1,-5.048232E-1,7.4629235E-1,-4.181239E-1,1.0419601E0,-1.5411928E-1,9.150664E-2,-8.870337E-2,4.6089968E-1,3.4737132E-2,